{
  "learner": {
    "attributes": { "scikit_learn": "{\"_estimator_type\": \"classifier\"}" },
    "feature_names": [
      "Flgs",
      "Sport",
      "SrcBytes",
      "DstBytes",
      "SrcLoad",
      "DstLoad",
      "SIntPkt",
      "DstJitter",
      "sMaxPktSz",
      "sMinPktSz",
      "Dur",
      "TotBytes",
      "Load",
      "Loss",
      "pSrcLoss",
      "Temp",
      "SpO2",
      "Pulse_Rate",
      "Heart_rate",
      "ST"
    ],
    "feature_types": [
      "float",
      "float",
      "float",
      "float",
      "float",
      "float",
      "float",
      "float",
      "float",
      "float",
      "float",
      "float",
      "float",
      "float",
      "float",
      "float",
      "float",
      "float",
      "float",
      "float"
    ],
    "gradient_booster": {
      "model": {
        "cats": { "enc": [], "feature_segments": [], "sorted_idx": [] },
        "gbtree_model_param": { "num_parallel_tree": "1", "num_trees": "455" },
        "iteration_indptr": [
          0, 1, 2, 3, 4, 5, 6, 7, 8, 9, 10, 11, 12, 13, 14, 15, 16, 17, 18, 19,
          20, 21, 22, 23, 24, 25, 26, 27, 28, 29, 30, 31, 32, 33, 34, 35, 36,
          37, 38, 39, 40, 41, 42, 43, 44, 45, 46, 47, 48, 49, 50, 51, 52, 53,
          54, 55, 56, 57, 58, 59, 60, 61, 62, 63, 64, 65, 66, 67, 68, 69, 70,
          71, 72, 73, 74, 75, 76, 77, 78, 79, 80, 81, 82, 83, 84, 85, 86, 87,
          88, 89, 90, 91, 92, 93, 94, 95, 96, 97, 98, 99, 100, 101, 102, 103,
          104, 105, 106, 107, 108, 109, 110, 111, 112, 113, 114, 115, 116, 117,
          118, 119, 120, 121, 122, 123, 124, 125, 126, 127, 128, 129, 130, 131,
          132, 133, 134, 135, 136, 137, 138, 139, 140, 141, 142, 143, 144, 145,
          146, 147, 148, 149, 150, 151, 152, 153, 154, 155, 156, 157, 158, 159,
          160, 161, 162, 163, 164, 165, 166, 167, 168, 169, 170, 171, 172, 173,
          174, 175, 176, 177, 178, 179, 180, 181, 182, 183, 184, 185, 186, 187,
          188, 189, 190, 191, 192, 193, 194, 195, 196, 197, 198, 199, 200, 201,
          202, 203, 204, 205, 206, 207, 208, 209, 210, 211, 212, 213, 214, 215,
          216, 217, 218, 219, 220, 221, 222, 223, 224, 225, 226, 227, 228, 229,
          230, 231, 232, 233, 234, 235, 236, 237, 238, 239, 240, 241, 242, 243,
          244, 245, 246, 247, 248, 249, 250, 251, 252, 253, 254, 255, 256, 257,
          258, 259, 260, 261, 262, 263, 264, 265, 266, 267, 268, 269, 270, 271,
          272, 273, 274, 275, 276, 277, 278, 279, 280, 281, 282, 283, 284, 285,
          286, 287, 288, 289, 290, 291, 292, 293, 294, 295, 296, 297, 298, 299,
          300, 301, 302, 303, 304, 305, 306, 307, 308, 309, 310, 311, 312, 313,
          314, 315, 316, 317, 318, 319, 320, 321, 322, 323, 324, 325, 326, 327,
          328, 329, 330, 331, 332, 333, 334, 335, 336, 337, 338, 339, 340, 341,
          342, 343, 344, 345, 346, 347, 348, 349, 350, 351, 352, 353, 354, 355,
          356, 357, 358, 359, 360, 361, 362, 363, 364, 365, 366, 367, 368, 369,
          370, 371, 372, 373, 374, 375, 376, 377, 378, 379, 380, 381, 382, 383,
          384, 385, 386, 387, 388, 389, 390, 391, 392, 393, 394, 395, 396, 397,
          398, 399, 400, 401, 402, 403, 404, 405, 406, 407, 408, 409, 410, 411,
          412, 413, 414, 415, 416, 417, 418, 419, 420, 421, 422, 423, 424, 425,
          426, 427, 428, 429, 430, 431, 432, 433, 434, 435, 436, 437, 438, 439,
          440, 441, 442, 443, 444, 445, 446, 447, 448, 449, 450, 451, 452, 453,
          454, 455
        ],
        "tree_info": [
          0, 0, 0, 0, 0, 0, 0, 0, 0, 0, 0, 0, 0, 0, 0, 0, 0, 0, 0, 0, 0, 0, 0,
          0, 0, 0, 0, 0, 0, 0, 0, 0, 0, 0, 0, 0, 0, 0, 0, 0, 0, 0, 0, 0, 0, 0,
          0, 0, 0, 0, 0, 0, 0, 0, 0, 0, 0, 0, 0, 0, 0, 0, 0, 0, 0, 0, 0, 0, 0,
          0, 0, 0, 0, 0, 0, 0, 0, 0, 0, 0, 0, 0, 0, 0, 0, 0, 0, 0, 0, 0, 0, 0,
          0, 0, 0, 0, 0, 0, 0, 0, 0, 0, 0, 0, 0, 0, 0, 0, 0, 0, 0, 0, 0, 0, 0,
          0, 0, 0, 0, 0, 0, 0, 0, 0, 0, 0, 0, 0, 0, 0, 0, 0, 0, 0, 0, 0, 0, 0,
          0, 0, 0, 0, 0, 0, 0, 0, 0, 0, 0, 0, 0, 0, 0, 0, 0, 0, 0, 0, 0, 0, 0,
          0, 0, 0, 0, 0, 0, 0, 0, 0, 0, 0, 0, 0, 0, 0, 0, 0, 0, 0, 0, 0, 0, 0,
          0, 0, 0, 0, 0, 0, 0, 0, 0, 0, 0, 0, 0, 0, 0, 0, 0, 0, 0, 0, 0, 0, 0,
          0, 0, 0, 0, 0, 0, 0, 0, 0, 0, 0, 0, 0, 0, 0, 0, 0, 0, 0, 0, 0, 0, 0,
          0, 0, 0, 0, 0, 0, 0, 0, 0, 0, 0, 0, 0, 0, 0, 0, 0, 0, 0, 0, 0, 0, 0,
          0, 0, 0, 0, 0, 0, 0, 0, 0, 0, 0, 0, 0, 0, 0, 0, 0, 0, 0, 0, 0, 0, 0,
          0, 0, 0, 0, 0, 0, 0, 0, 0, 0, 0, 0, 0, 0, 0, 0, 0, 0, 0, 0, 0, 0, 0,
          0, 0, 0, 0, 0, 0, 0, 0, 0, 0, 0, 0, 0, 0, 0, 0, 0, 0, 0, 0, 0, 0, 0,
          0, 0, 0, 0, 0, 0, 0, 0, 0, 0, 0, 0, 0, 0, 0, 0, 0, 0, 0, 0, 0, 0, 0,
          0, 0, 0, 0, 0, 0, 0, 0, 0, 0, 0, 0, 0, 0, 0, 0, 0, 0, 0, 0, 0, 0, 0,
          0, 0, 0, 0, 0, 0, 0, 0, 0, 0, 0, 0, 0, 0, 0, 0, 0, 0, 0, 0, 0, 0, 0,
          0, 0, 0, 0, 0, 0, 0, 0, 0, 0, 0, 0, 0, 0, 0, 0, 0, 0, 0, 0, 0, 0, 0,
          0, 0, 0, 0, 0, 0, 0, 0, 0, 0, 0, 0, 0, 0, 0, 0, 0, 0, 0, 0, 0, 0, 0,
          0, 0, 0, 0, 0, 0, 0, 0, 0, 0, 0, 0, 0, 0, 0, 0, 0, 0
        ],
        "trees": [
          {
            "base_weights": [
              -1.7929338e-2, 3.0011675e-1, -5.5790806e-1, -1.5840133,
              6.9076675e-3, -1.6127399, 2.7213728e-1, -1.2156863e-1,
              2.9851326e-1, -1.873203, -1.261811, -1.0503355, 3.7292026e-2,
              -2.969333e-1, -1.7818677, -2.8488287e-1, -1.1796572,
              -2.0588236e-1, -1.4822335, -1.3596492, 1.3496932e-1, -1.797784,
              -1.0026111e-1, -1.6634305, -1.0771277, -2.8811875e-1,
              3.0914825e-1, -1.776, -9.589041e-1, 4.7492098e-2, -1.4195012,
              1.9350772e-1, -2.9402414e-1, -2.815023e-1, -1.6484375, -1.7464789,
              -6.2068963e-1, -1.3296399, -8.396947e-1, 1.1072961, -2.7343938e-1,
              -1.4042553, -1.9008265, -2.8548923e-1, -3.1460676e-1, -1.654952,
              -8.181818e-1, 2.5238943e-1, -2.8039122e-1, -1.8074867, -1.1830986,
              -2.6748627e-1, -1.23851955e-1, -1.7693136e-2, -1.5039165e-1,
              -2.7272728e-1, -1.3900293, -1.0811881, -4e-1, 1.3518518,
              -2.4349125e-1, -2.7404702e-1, -6.181818e-1, -9.3333334e-1,
              -2.9542813e-1, 2.7032423e-1, -2.891024e-1, -2.8452474e-1,
              -1.4082841, -1.2156863, 4.7058824e-1, 1.5930459e-1, 1.2222222,
              -1.2380953, -1.8571428, 1.5755317e-1, -1.52, 1.741377e-1,
              -1.1724138, -1.7011495, -1.2734375, -1.4413408, -8.727273e-1,
              -8.791209e-1, 4.2990655e-1, -1.946245e-1, 1.546798, 2.187515e-1,
              -2.682662e-1, -3.342037e-2, -2.2558749e-1, -2.8137794e-1,
              -1.099099, -2.5390798e-1, 2.0689656e-1, -6.684074e-2,
              1.8046999e-1, -4.493392e-1, 2.7593493e-1, 1.4184676, -2.664081e-1,
              -3.342037e-2, -2.5781426e-1, -1.3454546, -2.902295e-1,
              -6.0156662e-2, -2.6029325e-1, -7.519583e-2, -2.3001076e-1,
              -1.5039165e-1, -2.6869974e-1, -7.0658684e-1, -1.5300859,
              -8.169014e-1, -2.6855654e-1, -1.4084508e-1, -1.0570343,
              -4.7619048e-1, -1.3580247, 7.5268817e-1, -2.0052221e-1,
              4.2969044e-2, 1.655914, -2.597674e-1, -6.4788735e-1, -7.519583e-2,
              1.23851955e-1, 2.7530363e-1, -1.3014354, 2.930709e-1,
              2.1872954e-1, 1.7368422, 9.282297e-1, -0, -2.714386e-1,
              3.783784e-1, -9.8507464e-1, -1.5688623, -7.915351e-2,
              -3.4146342e-1, -1.2941177, 1.5923823e-1, -4.827586e-1,
              -2.6318538e-1, -9.4468087e-1, -7.692308e-1, 3.2258064e-1,
              -7.519583e-2, -2.4161282e-1, -7.519583e-2, 9.62963e-1, 1.1666666,
              2.6689222e-1, -2.4609543e-1, -1.8867925e-1, 1.0989012,
              -2.0253165e-1, -1.748879, -7.7386934e-1, -1.2329514e-1,
              4.4622093e-1, 9.154274e-2, 2.7123266e-1, 1.2727273, -2.5450894e-1,
              1.6406363e-1, -7.915351e-2, -2.1484523e-1, -6.3996445e-3,
              -2.6948795e-1, -1.9505341e-1, -0, -1.108149e-1, -2.3746051e-1,
              -1.108149e-1, 3.8561966e-2, -2.4847317e-1, -1.50391655e-2,
              -1.6475065e-1, -0, -2.1484523e-1, 1.1279374e-1, -1.5830701e-2,
              2.3137178e-1, 9.686243e-2, 2.3394257e-1, -0, 1.1409022e-1,
              -1.7187618e-1, -1.0672956e-1, 2.1539965e-1, -7.1926445e-2,
              2.3242345e-1, -2.8898787e-1, 1.3077536e-2, -1.7110427e-1,
              1.5039165e-1, -6.501573e-3, -2.8555378e-1, 1.3644095e-1,
              2.863796e-2, -4.2969044e-2, 2.1585625e-1
            ],
            "categories": [],
            "categories_nodes": [],
            "categories_segments": [],
            "categories_sizes": [],
            "default_left": [
              0, 0, 0, 0, 0, 0, 0, 0, 0, 0, 0, 0, 0, 0, 0, 0, 0, 0, 0, 0, 0, 0,
              0, 0, 0, 0, 0, 0, 0, 0, 0, 0, 0, 0, 0, 0, 0, 0, 0, 0, 0, 0, 0, 0,
              0, 0, 0, 0, 0, 0, 0, 0, 0, 0, 0, 0, 0, 0, 0, 0, 0, 0, 0, 0, 0, 0,
              0, 0, 0, 0, 0, 0, 0, 0, 0, 0, 0, 0, 0, 0, 0, 0, 0, 0, 0, 0, 0, 0,
              0, 0, 0, 0, 0, 0, 0, 0, 0, 0, 0, 0, 0, 0, 0, 0, 0, 0, 0, 0, 0, 0,
              0, 0, 0, 0, 0, 0, 0, 0, 0, 0, 0, 0, 0, 0, 0, 0, 0, 0, 0, 0, 0, 0,
              0, 0, 0, 0, 0, 0, 0, 0, 0, 0, 0, 0, 0, 0, 0, 0, 0, 0, 0, 0, 0, 0,
              0, 0, 0, 0, 0, 0, 0, 0, 0, 0, 0, 0, 0, 0, 0, 0, 0, 0, 0, 0, 0, 0,
              0, 0, 0, 0, 0, 0, 0, 0, 0, 0, 0, 0, 0, 0, 0, 0, 0, 0, 0, 0, 0, 0,
              0, 0, 0, 0, 0
            ],
            "id": 0,
            "left_children": [
              1, -1, 3, 5, 7, 9, -1, 11, -1, 13, 15, 17, 19, -1, 21, -1, 23, 25,
              27, 29, 31, 33, -1, 35, 37, -1, 39, 41, 43, -1, 45, 47, -1, -1,
              49, 51, 53, 55, 57, 59, -1, 61, 63, -1, 65, 67, 69, 71, -1, 73,
              75, -1, -1, -1, -1, 77, 79, 81, 83, 85, -1, -1, 87, 89, -1, -1,
              -1, -1, 91, 93, 95, 97, 99, 101, 103, -1, 105, -1, 107, 109, 111,
              113, 115, 117, 119, -1, 121, -1, -1, -1, -1, -1, 123, -1, 125, -1,
              -1, 127, 129, 131, -1, -1, -1, 133, -1, -1, -1, -1, -1, -1, -1,
              135, 137, 139, -1, 141, 143, 145, 147, 149, -1, -1, 151, -1, 153,
              -1, -1, 155, 157, -1, 159, 161, 163, -1, -1, 165, 167, 169, -1,
              171, 173, -1, 175, -1, 177, 179, 181, -1, -1, -1, 183, 185, -1,
              -1, 187, 189, 191, 193, 195, 197, 199, -1, -1, 201, -1, -1, -1,
              -1, -1, -1, -1, -1, -1, -1, -1, -1, -1, -1, -1, -1, -1, -1, -1,
              -1, -1, -1, -1, -1, -1, -1, -1, -1, -1, -1, -1, -1, -1, -1, -1,
              -1, -1, -1, -1
            ],
            "loss_changes": [
              4.6401187e3, 0, 1.9503766e3, 1.1938794e2, 5.5207556e2, 1.059729e2,
              0, 3.0103e2, 0, 2.7507324, 2.4160645e1, 1.08380646e2, 2.380149e2,
              0, 5.311157, 0, 2.064032e1, 9.041903e1, 2.858313e1, 1.187999e1,
              1.9980351e2, 9.0478516e-1, 0, 5.605667, 2.1426483e1, 0,
              1.3657375e2, 3.1312256, 4.358629e1, 0, 1.4255264e1, 1.9271236e2,
              0, 0, 7.335083, 6.399994e-1, 1.2657201, 1.1141541e1, 2.0432556e1,
              4.102649e1, 0, 1.0455025e1, 3.747589, 0, 1.5456097e2, 1.9090424,
              1.747772e1, 1.3912485e2, 0, 3.4429932e-1, 2.8271767e1, 0, 0, 0, 0,
              1.5515757e1, 4.0184326, 8.220673, 2.8708761e1, 2.9856102e1, 0, 0,
              3.5814247e1, 2.688889, 0, 0, 0, 0, 3.9876862, 1.7494198e1,
              6.2065363, 1.0016147e2, 8.18239e1, 4.698414, 5.2749634e-1, 0,
              6.6846237, 0, 9.756594e-1, 8.2160187e-1, 1.7540482e1, 8.164307,
              1.0979622e1, 8.1332245, 1.6228117e1, 0, 6.5103073, 0, 0, 0, 0, 0,
              6.7463646, 0, 3.5720081, 0, 0, 1.4052295e2, 1.1280157e2,
              1.8248901e1, 0, 0, 0, 8.499334, 0, 0, 0, 0, 0, 0, 0, 1.298748e1,
              2.570282, 3.5853453, 0, 7.7919035, 3.4659119, 6.3925323,
              3.5149765, 6.605736, 0, 0, 6.3077545e-1, 0, 7.7482667, 0, 0,
              4.8825237e1, 2.3314468e1, 0, 8.9164246e1, 4.618164, 4.932352e1, 0,
              0, 6.5369196, 1.394239e1, 2.739746, 0, 1.3838253, 1.8575764e-1, 0,
              1.2957367e1, 0, 7.3737297, 9.89011, 1.49618, 0, 0, 0, 2.725481,
              5.4444447, 0, 0, 1.2843574e1, 2.8448494e1, 3.881483e1,
              1.7841507e1, 3.3247948e1, 6.505774e1, 8.096121e1, 0, 0,
              1.2254242e1, 0, 0, 0, 0, 0, 0, 0, 0, 0, 0, 0, 0, 0, 0, 0, 0, 0, 0,
              0, 0, 0, 0, 0, 0, 0, 0, 0, 0, 0, 0, 0, 0, 0, 0, 0, 0, 0, 0, 0
            ],
            "parents": [
              2147483647, 0, 0, 2, 2, 3, 3, 4, 4, 5, 5, 7, 7, 9, 9, 10, 10, 11,
              11, 12, 12, 14, 14, 16, 16, 17, 17, 18, 18, 19, 19, 20, 20, 21,
              21, 23, 23, 24, 24, 26, 26, 27, 27, 28, 28, 30, 30, 31, 31, 34,
              34, 35, 35, 36, 36, 37, 37, 38, 38, 39, 39, 41, 41, 42, 42, 44,
              44, 45, 45, 46, 46, 47, 47, 49, 49, 50, 50, 55, 55, 56, 56, 57,
              57, 58, 58, 59, 59, 62, 62, 63, 63, 68, 68, 69, 69, 70, 70, 71,
              71, 72, 72, 73, 73, 74, 74, 76, 76, 78, 78, 79, 79, 80, 80, 81,
              81, 82, 82, 83, 83, 84, 84, 86, 86, 92, 92, 94, 94, 97, 97, 98,
              98, 99, 99, 103, 103, 111, 111, 112, 112, 113, 113, 115, 115, 116,
              116, 117, 117, 118, 118, 119, 119, 122, 122, 124, 124, 127, 127,
              128, 128, 130, 130, 131, 131, 132, 132, 135, 135, 136, 136, 137,
              137, 139, 139, 140, 140, 142, 142, 144, 144, 145, 145, 146, 146,
              150, 150, 151, 151, 154, 154, 155, 155, 156, 156, 157, 157, 158,
              158, 159, 159, 160, 160, 163, 163
            ],
            "right_children": [
              2, -1, 4, 6, 8, 10, -1, 12, -1, 14, 16, 18, 20, -1, 22, -1, 24,
              26, 28, 30, 32, 34, -1, 36, 38, -1, 40, 42, 44, -1, 46, 48, -1,
              -1, 50, 52, 54, 56, 58, 60, -1, 62, 64, -1, 66, 68, 70, 72, -1,
              74, 76, -1, -1, -1, -1, 78, 80, 82, 84, 86, -1, -1, 88, 90, -1,
              -1, -1, -1, 92, 94, 96, 98, 100, 102, 104, -1, 106, -1, 108, 110,
              112, 114, 116, 118, 120, -1, 122, -1, -1, -1, -1, -1, 124, -1,
              126, -1, -1, 128, 130, 132, -1, -1, -1, 134, -1, -1, -1, -1, -1,
              -1, -1, 136, 138, 140, -1, 142, 144, 146, 148, 150, -1, -1, 152,
              -1, 154, -1, -1, 156, 158, -1, 160, 162, 164, -1, -1, 166, 168,
              170, -1, 172, 174, -1, 176, -1, 178, 180, 182, -1, -1, -1, 184,
              186, -1, -1, 188, 190, 192, 194, 196, 198, 200, -1, -1, 202, -1,
              -1, -1, -1, -1, -1, -1, -1, -1, -1, -1, -1, -1, -1, -1, -1, -1,
              -1, -1, -1, -1, -1, -1, -1, -1, -1, -1, -1, -1, -1, -1, -1, -1,
              -1, -1, -1, -1, -1, -1
            ],
            "split_conditions": [
              1.6666667e-1, 3.0011675e-1, 7.810136e-4, 8.333333e-1, 1,
              6.780688e-4, 2.7213728e-1, 1.9760938e-1, 2.9851326e-1,
              5.7490356e-4, 1.7741494e-2, 5e-1, 9.0770945e-3, -2.969333e-1,
              7.580769e-1, -2.8488287e-1, 3.5765526e-1, 7.102904e-2,
              6.560311e-1, 5.294118e-1, 9.607693e-1, 3.8336405e-1,
              -1.0026111e-1, 7.2486794e-1, 7.3758716e-4, -2.8811875e-1,
              1.16542794e-1, 8.7425037e-4, 1.0939054e-1, 4.7492098e-2,
              7.287739e-1, 8.8e-1, -2.9402414e-1, -2.815023e-1, 7.17876e-1,
              4.640793e-1, 6.1336297e-1, 1.448799e-1, 2.323975e-3, 6.139852e-1,
              -2.7343938e-1, 7.022997e-1, 5.0477505e-1, -2.8548923e-1,
              1.16542794e-1, 5.633782e-1, 7.4381924e-1, 4.640793e-1,
              -2.8039122e-1, 1.8e-1, 7.248487e-1, -2.6748627e-1, -1.23851955e-1,
              -1.7693136e-2, -1.5039165e-1, 3.9088568e-1, 2.607742e-1,
              3.4271294e-1, 6.2360644e-1, 5.846407e-1, -2.4349125e-1,
              -2.7404702e-1, 7.2486794e-1, 1.21666774e-1, -2.9542813e-1,
              2.7032423e-1, -2.891024e-1, -2.8452474e-1, 1.6475572e-3,
              6.646384e-2, 4.478507e-1, 9.70047e-1, 6.460626e-1, 5.8884376e-1,
              9.689506e-1, 1.5755317e-1, 3.9175257e-1, 1.741377e-1, 3.97303e-1,
              4.248267e-1, 4.6877277e-1, 5.235045e-1, 4.642556e-1, 5.3817725e-1,
              6.139852e-1, -1.946245e-1, 1.4048149e-1, 2.187515e-1,
              -2.682662e-1, -3.342037e-2, -2.2558749e-1, -2.8137794e-1,
              4.1716734e-1, -2.5390798e-1, 6.293344e-3, -6.684074e-2,
              1.8046999e-1, 4.608076e-1, 9.8e-1, 5.4576266e-1, -2.664081e-1,
              -3.342037e-2, -2.5781426e-1, 5.85632e-1, -2.902295e-1,
              -6.0156662e-2, -2.6029325e-1, -7.519583e-2, -2.3001076e-1,
              -1.5039165e-1, -2.6869974e-1, 4.6e-1, 5.333533e-1, 3.743762e-1,
              -2.6855654e-1, 4e-1, 5.328259e-1, 5.0477505e-1, 1.9529277e-1,
              1.7454602e-1, -2.0052221e-1, 4.2969044e-2, 4.1091496e-1,
              -2.597674e-1, 2.4968253e-2, -7.519583e-2, 1.23851955e-1,
              9.6972066e-1, 4.1312057e-1, 2.930709e-1, 5.4576266e-1,
              4.5324004e-1, 7.815126e-1, -0, -2.714386e-1, 3.7161905e-1,
              7.2486794e-1, 7.7598476e-1, -7.915351e-2, 7.600719e-4,
              4.6233472e-1, 1.5923823e-1, 2.3086773e-2, -2.6318538e-1,
              5.8884376e-1, 4.3076923e-1, 9.802161e-1, -7.519583e-2,
              -2.4161282e-1, -7.519583e-2, 6.8e-1, 9.70047e-1, 2.6689222e-1,
              -2.4609543e-1, 6.8444854e-1, 6.0828495e-1, 7.699298e-1,
              4.6555194e-1, 8.776853e-1, 9.0203774e-1, 4.1538462e-1,
              9.154274e-2, 2.7123266e-1, 8.438416e-4, -2.5450894e-1,
              1.6406363e-1, -7.915351e-2, -2.1484523e-1, -6.3996445e-3,
              -2.6948795e-1, -1.9505341e-1, -0, -1.108149e-1, -2.3746051e-1,
              -1.108149e-1, 3.8561966e-2, -2.4847317e-1, -1.50391655e-2,
              -1.6475065e-1, -0, -2.1484523e-1, 1.1279374e-1, -1.5830701e-2,
              2.3137178e-1, 9.686243e-2, 2.3394257e-1, -0, 1.1409022e-1,
              -1.7187618e-1, -1.0672956e-1, 2.1539965e-1, -7.1926445e-2,
              2.3242345e-1, -2.8898787e-1, 1.3077536e-2, -1.7110427e-1,
              1.5039165e-1, -6.501573e-3, -2.8555378e-1, 1.3644095e-1,
              2.863796e-2, -4.2969044e-2, 2.1585625e-1
            ],
            "split_indices": [
              0, 0, 7, 0, 0, 7, 0, 1, 0, 7, 5, 15, 5, 0, 18, 0, 19, 1, 18, 18,
              1, 17, 0, 15, 7, 0, 1, 7, 1, 0, 1, 15, 0, 0, 1, 17, 1, 15, 10, 18,
              0, 15, 15, 0, 1, 15, 15, 17, 0, 15, 1, 0, 0, 0, 0, 17, 1, 1, 15,
              18, 0, 0, 15, 1, 0, 0, 0, 0, 7, 4, 19, 16, 15, 1, 16, 0, 17, 0,
              17, 19, 1, 15, 1, 15, 18, 0, 4, 0, 0, 0, 0, 0, 19, 0, 10, 0, 0, 1,
              16, 15, 0, 0, 0, 15, 0, 0, 0, 0, 0, 0, 0, 15, 19, 17, 0, 15, 1,
              15, 4, 1, 0, 0, 19, 0, 4, 0, 0, 16, 17, 0, 15, 15, 18, 0, 0, 1,
              15, 1, 0, 7, 15, 0, 5, 0, 1, 19, 16, 0, 0, 0, 15, 16, 0, 0, 15,
              18, 18, 19, 1, 1, 19, 0, 0, 7, 0, 0, 0, 0, 0, 0, 0, 0, 0, 0, 0, 0,
              0, 0, 0, 0, 0, 0, 0, 0, 0, 0, 0, 0, 0, 0, 0, 0, 0, 0, 0, 0, 0, 0,
              0, 0, 0, 0, 0
            ],
            "split_type": [
              0, 0, 0, 0, 0, 0, 0, 0, 0, 0, 0, 0, 0, 0, 0, 0, 0, 0, 0, 0, 0, 0,
              0, 0, 0, 0, 0, 0, 0, 0, 0, 0, 0, 0, 0, 0, 0, 0, 0, 0, 0, 0, 0, 0,
              0, 0, 0, 0, 0, 0, 0, 0, 0, 0, 0, 0, 0, 0, 0, 0, 0, 0, 0, 0, 0, 0,
              0, 0, 0, 0, 0, 0, 0, 0, 0, 0, 0, 0, 0, 0, 0, 0, 0, 0, 0, 0, 0, 0,
              0, 0, 0, 0, 0, 0, 0, 0, 0, 0, 0, 0, 0, 0, 0, 0, 0, 0, 0, 0, 0, 0,
              0, 0, 0, 0, 0, 0, 0, 0, 0, 0, 0, 0, 0, 0, 0, 0, 0, 0, 0, 0, 0, 0,
              0, 0, 0, 0, 0, 0, 0, 0, 0, 0, 0, 0, 0, 0, 0, 0, 0, 0, 0, 0, 0, 0,
              0, 0, 0, 0, 0, 0, 0, 0, 0, 0, 0, 0, 0, 0, 0, 0, 0, 0, 0, 0, 0, 0,
              0, 0, 0, 0, 0, 0, 0, 0, 0, 0, 0, 0, 0, 0, 0, 0, 0, 0, 0, 0, 0, 0,
              0, 0, 0, 0, 0
            ],
            "sum_hessian": [
              4.26575e3, 9.015e2, 3.36425e3, 1.19375e3, 2.1705e3, 1.18425e3,
              9.5, 2.039e3, 1.315e2, 6.7725e2, 5.07e2, 2.97e2, 1.742e3, 3.115e2,
              3.6575e2, 5.575e1, 4.5125e2, 1.01e2, 1.96e2, 1.13e2, 1.629e3,
              3.6e2, 5.75, 7.625e1, 3.75e2, 2.275e1, 7.825e1, 1.24e2, 7.2e1,
              3.75, 1.0925e2, 1.5855e3, 4.35e1, 2.33e2, 1.27e2, 7e1, 6.25,
              1.795e2, 1.955e2, 5.725e1, 2.1e1, 3.425e1, 8.975e1, 2.85e1,
              4.35e1, 7.725e1, 3.2e1, 1.54225e3, 4.325e1, 9.25e1, 3.45e1,
              6.675e1, 3.25, 3.25, 3, 1e1, 1.695e2, 1.2525e2, 7.025e1, 5.3e1,
              4.25, 2.15e1, 1.275e1, 6.5, 8.325e1, 1.875e1, 2.475e1, 3.6e1,
              4.125e1, 2.45e1, 7.5, 1.40825e3, 1.34e2, 9.5, 8.3e1, 4.25,
              3.025e1, 3.75, 6.25, 4.25e1, 1.27e2, 4.375e1, 8.15e1, 4.45e1,
              2.575e1, 3.25, 4.975e1, 4.5, 8.25, 3.5, 3, 1.45e1, 2.675e1,
              1.825e1, 6.25, 3.5, 4, 2.26e2, 1.18225e3, 1.2625e2, 7.75, 3.5, 6,
              1.275e1, 7.025e1, 5.25, 2.5e1, 3, 3.25, 6, 3.65e1, 4.075e1,
              8.625e1, 1.675e1, 2.7e1, 1.675e1, 6.475e1, 2.525e1, 1.925e1,
              2.225e1, 3.5, 4.25, 4.55e1, 1e1, 1.675e1, 3, 3.25, 1.225e2,
              1.035e2, 3.8e1, 1.14425e3, 7.5e1, 5.125e1, 3.5, 9.25, 8.25,
              3.25e1, 8.25e1, 3.75, 9.25, 7.5, 3.25, 1.35e1, 7, 5.775e1, 1.85e1,
              6.75, 5, 1.425e1, 3, 1.925e1, 1.1e1, 3.45e1, 4.5, 1.225e1, 4.45e1,
              7.8e1, 5.475e1, 4.875e1, 4.5725e2, 6.87e2, 4.75, 7.025e1, 4.575e1,
              5.5, 4.5, 3.75, 2.175e1, 1.075e1, 4.225e1, 4.025e1, 5.5, 3.75,
              3.75, 3.75, 8.75, 4.75, 9, 4.875e1, 9, 9.5, 3, 3.75, 5.5, 1.375e1,
              8, 3, 6.25, 6, 6.75, 3.775e1, 6.8e1, 1e1, 5e1, 4.75, 4.075e1, 8,
              4.385e2, 1.875e1, 2.4425e2, 4.4275e2, 4.25, 4.15e1
            ],
            "tree_param": {
              "num_deleted": "0",
              "num_feature": "20",
              "num_nodes": "203",
              "size_leaf_vector": "1"
            }
          },
          {
            "base_weights": [
              1.8166438e-3, 2.611558e-1, -4.6068025e-1, -1.337833, 8.116132e-2,
              -1.5296966, -8.186126e-1, -2.9400552e-2, 2.599415e-1, -1.5419773,
              2.0522453e-1, -8.7481034e-1, 2.3236272e-1, -1.0205286,
              1.07486635e-1, -1.632744, -1.3102946, -5.9277076e-1, -1.1949914,
              -1.3247943, -6.4579546e-1, -7.0264405e-1, 2.3337373e-1,
              -2.597503e-1, -1.5503598, -3.515273e-1, -1.3481396, -4.7588226e-1,
              -2.5959224e-1, -1.2322017, 1.8380072e-2, -1.5302728, -8.967486e-1,
              -7.2695714e-1, 2.231086e-1, 1.7905016e-1, -1.1514351,
              2.8769383e-1, -2.5593466e-1, -1.559306, -1.2323311e-1,
              -2.2641847e-1, 1.1455721e-1, -2.559982e-1, -1.2704896,
              -8.4155256e-1, 1.4713612e-1, -1.2907256, -4.820772e-1,
              -2.4233966e-1, -1.1565913, -2.4384269e-1, -3.5854614e-1,
              -2.3710603e-1, -4.799274e-1, -2.449494e-1, 5.834457e-1, -1.493696,
              -7.946535e-1, 3.3930662e-1, -1.5566206, -1.5655065, -1.0056337e-1,
              -1.5495539, -1.1725074, -5.5502814e-1, -2.3349252e-1, 1.1110204,
              -9.1980696e-2, -1.1624494, -2.4684702e-1, 8.462656e-2,
              -2.1385857e-1, -2.198653e-1, 2.0671906e-2, -2.2806503e-1,
              -5.8421777e-3, 4.1137525e-1, -9.0651363e-1, 1.1090198,
              -2.1407607e-1, -8.4272546e-1, -2.5827205e-1, 1.3106117,
              -1.4888824, -4.59001e-1, 4.3912184e-1, -9.022944e-1,
              -2.5546902e-1, -1.5160662, -2.598512e-1, -2.5367695e-1, -1.082998,
              -1.1060128, -2.561941e-1, -9.154775e-1, 1.2593336e-3,
              1.1201611e-1, 2.3969609e-1, 1.6315858e-1, -2.2380224e-1,
              -1.2745054, 5.0144786e-1, 1.3019541e-1, -2.2443439e-1, 1.064808,
              -1.3394216e-1, -1.1206574e-3, -1.0199708, 1.3167827,
              -2.0797504e-1, -2.4360572e-1, 2.7650112e-1, 2.3136471e-1,
              4.9385265e-2, -1.6345197e-1, -2.5639015e-1, 2.4892525e-1,
              -7.147225e-1, -2.689824e-1, 4.6823162e-1, -2.1292065e-1,
              -2.7061151e-2, -1.6709979, -1.4435449, -5.413731e-1, -2.357424e-1,
              -1.4930824, -9.93102e-1, -1.4210795e-1, -1.1725354, -5.6454486e-1,
              9.1267323e-1, -8.554546e-1, 3.6939827e-1, -4.3442644e-2,
              -1.3391563, 2.8735293e-2, 1.0444697e-1, -7.587027e-1,
              4.5841582e-2, 7.603111e-2, 2.2082618e-1, 4.891864e-1,
              -8.363667e-1, -2.3720826e-1, -7.9871726e-1, 2.578233e-1,
              9.391407e-1, -7.515797e-2, 1.6701859e-1, -1.01856075e-1,
              8.92141e-2, -2.9514495e-1, -1.2049487e-1, 3.8815275e-1, 1.1638659,
              -7.598846e-2, -2.602509e-1, -4.65385e-1, -1.5257694, 7.3094466e-3,
              -1.5286276e-1, -9.6297465e-2, -2.358347e-1, -6.556496e-1,
              -1.1850563, -2.2050089e-1, 6.2971395e-1, -3.7096274e-1,
              -2.3752315e-1, 5.530865e-1, -2.5763047e-1, 2.2736937e-1,
              4.3562707e-2, -2.2593375e-1, 5.4399725e-3, 1.7908314e-1,
              1.9309393e-1, -6.483483e-1, -1.4367977, 7.459425e-2,
              -2.2873817e-1, 3.7540197e-3, 1.17239654e-1, -1.9619e-1,
              -2.1947429e-2, -1.0450673, 2.3582773e-1, -2.3327139e-1,
              2.213539e-1, 2.604961e-1, -6.2926525e-1, -1.7200361e-1,
              5.080987e-1, 1.3021219, -2.104172e-1, 1.5853846e-1, -1.355861e-1,
              -2.4482091e-1, -2.0352764e-1, 2.7879164e-2, -1.19927734e-1,
              -2.1411307e-1, -1.358374e-1, 2.0570837e-1, -3.1011807e-2,
              -1.7843571e-1, 1.5795647e-1, -2.1943305e-1, 2.4265377e-1,
              -3.780589e-2, 8.266794e-2, 3.0210001e-2, -2.3992771e-1,
              -2.2076194e-1, -1.1088335e-1, -1.8297371e-1, -2.0942284e-2,
              1.3678029e-1, -7.403096e-2, -2.9003444e-1, 2.0508213e-2,
              5.9353933e-2, -1.3187961e-1, -2.4001767e-1, 8.375926e-2,
              2.3420027e-1, 1.3109866e-1
            ],
            "categories": [],
            "categories_nodes": [],
            "categories_segments": [],
            "categories_sizes": [],
            "default_left": [
              0, 0, 0, 0, 0, 0, 0, 0, 0, 0, 0, 0, 0, 0, 0, 0, 0, 0, 0, 0, 0, 0,
              0, 0, 0, 0, 0, 0, 0, 0, 0, 0, 0, 0, 0, 0, 0, 0, 0, 0, 0, 0, 0, 0,
              0, 0, 0, 0, 0, 0, 0, 0, 0, 0, 0, 0, 0, 0, 0, 0, 0, 0, 0, 0, 0, 0,
              0, 0, 0, 0, 0, 0, 0, 0, 0, 0, 0, 0, 0, 0, 0, 0, 0, 0, 0, 0, 0, 0,
              0, 0, 0, 0, 0, 0, 0, 0, 0, 0, 0, 0, 0, 0, 0, 0, 0, 0, 0, 0, 0, 0,
              0, 0, 0, 0, 0, 0, 0, 0, 0, 0, 0, 0, 0, 0, 0, 0, 0, 0, 0, 0, 0, 0,
              0, 0, 0, 0, 0, 0, 0, 0, 0, 0, 0, 0, 0, 0, 0, 0, 0, 0, 0, 0, 0, 0,
              0, 0, 0, 0, 0, 0, 0, 0, 0, 0, 0, 0, 0, 0, 0, 0, 0, 0, 0, 0, 0, 0,
              0, 0, 0, 0, 0, 0, 0, 0, 0, 0, 0, 0, 0, 0, 0, 0, 0, 0, 0, 0, 0, 0,
              0, 0, 0, 0, 0, 0, 0, 0, 0, 0, 0, 0, 0, 0, 0, 0, 0, 0, 0, 0, 0, 0,
              0, 0, 0, 0, 0, 0, 0, 0, 0
            ],
            "id": 1,
            "left_children": [
              1, -1, 3, 5, 7, 9, 11, 13, -1, 15, -1, 17, -1, 19, 21, 23, 25, 27,
              29, 31, 33, 35, 37, -1, 39, 41, 43, 45, -1, 47, -1, 49, 51, 53,
              -1, 55, 57, 59, -1, 61, -1, -1, -1, -1, 63, 65, 67, 69, 71, -1,
              73, -1, 75, -1, 77, -1, 79, 81, 83, 85, 87, 89, -1, 91, 93, 95,
              -1, 97, 99, 101, -1, -1, -1, -1, -1, -1, 103, 105, 107, 109, -1,
              111, -1, 113, 115, 117, 119, 121, -1, 123, -1, -1, 125, 127, -1,
              129, 131, -1, -1, 133, -1, 135, 137, -1, 139, 141, 143, -1, 145,
              147, -1, -1, 149, -1, -1, 151, -1, -1, 153, -1, 155, -1, -1, 157,
              159, 161, -1, 163, 165, 167, 169, 171, 173, 175, 177, -1, 179, -1,
              -1, 181, -1, -1, -1, 183, 185, -1, 187, -1, 189, -1, -1, -1, -1,
              -1, 191, 193, 195, -1, -1, 197, 199, -1, -1, -1, -1, 201, 203, -1,
              205, 207, -1, 209, -1, -1, -1, -1, -1, 211, -1, 213, 215, -1, -1,
              -1, -1, -1, -1, 217, 219, -1, -1, -1, 221, 223, 225, 227, -1, -1,
              -1, -1, -1, -1, -1, -1, -1, -1, -1, -1, -1, -1, -1, -1, -1, -1,
              -1, -1, -1, -1, -1, -1, -1, -1, -1, -1, -1, -1, -1, -1, -1
            ],
            "loss_changes": [
              3.3729104e3, 0, 1.5776376e3, 1.2501343e2, 3.738977e2, 3.4958984e1,
              4.7064713e1, 2.6122107e2, 0, 1.7226318e1, 0, 2.9704773e1, 0,
              2.5784393e1, 1.7271465e2, 2.4375, 9.115723, 2.3162056e1, 7.833191,
              9.885498, 1.9509575e1, 9.034568e1, 1.545006e2, 0, 1.0825806,
              1.5777862e1, 4.817993, 3.7827255e1, 0, 6.0737915, 0, 7.1481323e-1,
              1.655138e1, 2.0946548e1, 0, 5.775787e1, 1.7263504e1, 1.36267e2, 0,
              9.1625977e-1, 0, 0, 0, 0, 3.9847717, 2.0414207e1, 1.4406052e1,
              4.4291077, 1.320809e1, 0, 7.596321, 0, 1.081046e1, 0, 3.1379763e1,
              0, 6.933413e1, 9.6138, 1.1319559e2, 1.108e2, 2.0925674,
              2.0758057e-1, 0, 1.5041428, 3.8058777, 1.5239201e1, 0, 1.0072718,
              1.828453e1, 2.0511292e1, 0, 0, 0, 0, 0, 0, 4.2541885, 9.793699,
              5.650154, 2.8467113e1, 0, 1.9052608e1, 0, 3.8372498, 1.6237564e1,
              8.484473e1, 8.0873535e1, 3.1168518, 0, 7.13562e-1, 0, 0,
              2.9876633, 4.9009247, 0, 9.001305, 1.6438961e1, 0, 0, 9.501534, 0,
              5.994339, 3.132546e-1, 0, 5.2732453, 2.0634613, 7.2600546, 0,
              4.812088, 5.5993958, 0, 0, 6.783383, 0, 0, 3.974914, 0, 0,
              1.0263947e2, 0, 6.745914e1, 0, 0, 4.836609, 1.5121368e1, 2.412096,
              0, 9.8002625e-1, 6.741234, 1.3843108e1, 1.0656105e1, 2.6195684e1,
              4.11977, 4.474437, 6.2204823, 0, 5.388687, 0, 0, 9.51511, 0, 0, 0,
              1.1836469, 2.3072138, 0, 9.746302, 0, 3.78854e1, 0, 0, 0, 0, 0,
              9.068211e1, 7.36422e1, 4.623979e1, 0, 0, 1.2020257e1, 9.868469e-1,
              0, 0, 0, 0, 5.4330673, 3.6067047, 0, 5.64148, 1.6213226e1, 0,
              2.5237404e1, 0, 0, 0, 0, 0, 5.2174573, 0, 1.1118023e1,
              6.866913e-1, 0, 0, 0, 0, 0, 0, 4.5382614, 4.364126, 0, 0, 0,
              7.517453e1, 7.776763e1, 9.357695e1, 1.1760498e1, 0, 0, 0, 0, 0, 0,
              0, 0, 0, 0, 0, 0, 0, 0, 0, 0, 0, 0, 0, 0, 0, 0, 0, 0, 0, 0, 0, 0,
              0, 0, 0, 0, 0
            ],
            "parents": [
              2147483647, 0, 0, 2, 2, 3, 3, 4, 4, 5, 5, 6, 6, 7, 7, 9, 9, 11,
              11, 13, 13, 14, 14, 15, 15, 16, 16, 17, 17, 18, 18, 19, 19, 20,
              20, 21, 21, 22, 22, 24, 24, 25, 25, 26, 26, 27, 27, 29, 29, 31,
              31, 32, 32, 33, 33, 35, 35, 36, 36, 37, 37, 39, 39, 44, 44, 45,
              45, 46, 46, 47, 47, 48, 48, 50, 50, 52, 52, 54, 54, 56, 56, 57,
              57, 58, 58, 59, 59, 60, 60, 61, 61, 63, 63, 64, 64, 65, 65, 67,
              67, 68, 68, 69, 69, 76, 76, 77, 77, 78, 78, 79, 79, 81, 81, 83,
              83, 84, 84, 85, 85, 86, 86, 87, 87, 89, 89, 92, 92, 93, 93, 95,
              95, 96, 96, 99, 99, 101, 101, 102, 102, 104, 104, 105, 105, 106,
              106, 108, 108, 109, 109, 112, 112, 115, 115, 118, 118, 120, 120,
              123, 123, 124, 124, 125, 125, 127, 127, 128, 128, 129, 129, 130,
              130, 131, 131, 132, 132, 133, 133, 134, 134, 136, 136, 139, 139,
              143, 143, 144, 144, 146, 146, 148, 148, 154, 154, 155, 155, 156,
              156, 159, 159, 160, 160, 165, 165, 166, 166, 168, 168, 169, 169,
              171, 171, 177, 177, 179, 179, 180, 180, 187, 187, 188, 188, 192,
              192, 193, 193, 194, 194, 195, 195
            ],
            "right_children": [
              2, -1, 4, 6, 8, 10, 12, 14, -1, 16, -1, 18, -1, 20, 22, 24, 26,
              28, 30, 32, 34, 36, 38, -1, 40, 42, 44, 46, -1, 48, -1, 50, 52,
              54, -1, 56, 58, 60, -1, 62, -1, -1, -1, -1, 64, 66, 68, 70, 72,
              -1, 74, -1, 76, -1, 78, -1, 80, 82, 84, 86, 88, 90, -1, 92, 94,
              96, -1, 98, 100, 102, -1, -1, -1, -1, -1, -1, 104, 106, 108, 110,
              -1, 112, -1, 114, 116, 118, 120, 122, -1, 124, -1, -1, 126, 128,
              -1, 130, 132, -1, -1, 134, -1, 136, 138, -1, 140, 142, 144, -1,
              146, 148, -1, -1, 150, -1, -1, 152, -1, -1, 154, -1, 156, -1, -1,
              158, 160, 162, -1, 164, 166, 168, 170, 172, 174, 176, 178, -1,
              180, -1, -1, 182, -1, -1, -1, 184, 186, -1, 188, -1, 190, -1, -1,
              -1, -1, -1, 192, 194, 196, -1, -1, 198, 200, -1, -1, -1, -1, 202,
              204, -1, 206, 208, -1, 210, -1, -1, -1, -1, -1, 212, -1, 214, 216,
              -1, -1, -1, -1, -1, -1, 218, 220, -1, -1, -1, 222, 224, 226, 228,
              -1, -1, -1, -1, -1, -1, -1, -1, -1, -1, -1, -1, -1, -1, -1, -1,
              -1, -1, -1, -1, -1, -1, -1, -1, -1, -1, -1, -1, -1, -1, -1, -1, -1
            ],
            "split_conditions": [
              7.1741894e-2, 2.611558e-1, 7.93799e-4, 7.3758716e-4, 1,
              8.333333e-1, 8.333333e-1, 1.33858835e-2, 2.599415e-1,
              6.7299866e-4, 2.0522453e-1, 3.814433e-1, 2.3236272e-1,
              8.5687116e-2, 2.0167036e-1, 5.6674733e-4, 1.4e-1, 7.7727157e-1,
              2.5307053e-1, 6.460626e-1, 1.0431252e-3, 5e-1, 9.607693e-1,
              -2.597503e-1, 7.699298e-1, 1.2e-1, 1.8663907e-2, 6.2360644e-1,
              -2.5959224e-1, 4.640793e-1, 1.8380072e-2, 6.2732794e-3,
              4.2286947e-1, 2.2182843e-1, 2.231086e-1, 7.102904e-2,
              1.0939054e-1, 8.8e-1, -2.5593466e-1, 5.154639e-1, -1.2323311e-1,
              -2.2641847e-1, 1.1455721e-1, -2.559982e-1, 6.004693e-1,
              5.306606e-1, 6.6e-1, 2.3617196e-1, 5.4576266e-1, -2.4233966e-1,
              6.9933337e-1, -2.4384269e-1, 9.70047e-1, -2.3710603e-1,
              3.9734894e-1, -2.449494e-1, 1.16542794e-1, 8.7425037e-4,
              1.16542794e-1, 3.743762e-1, 9e-1, 2.5185627e-1, -1.0056337e-1,
              8.0936325e-1, 8.9816993e-1, 5.0477505e-1, -2.3349252e-1,
              5.959697e-1, 2.3951234e-1, 2.2625573e-1, -2.4684702e-1,
              8.462656e-2, -2.1385857e-1, -2.198653e-1, 2.0671906e-2,
              -2.2806503e-1, 6.8e-1, 1.5305044e-3, 1.8e-1, 6.139852e-1,
              -2.1407607e-1, 6.460626e-1, -2.5827205e-1, 2.0541182e-1,
              5.306606e-1, 2.068807e-1, 1.2e-1, 2.0541182e-1, -2.5546902e-1,
              3.0963144e-1, -2.598512e-1, -2.5367695e-1, 8.9538616e-1,
              2.2410741e-1, -2.561941e-1, 1.16542794e-1, 8.0353993e-1,
              1.1201611e-1, 2.3969609e-1, 1.9226998e-1, -2.2380224e-1,
              5.714286e-1, 5.4576266e-1, 1.3019541e-1, 7.3444206e-1,
              4.072165e-1, 2.635879e-1, -1.1206574e-3, 5.235045e-1, 7.876791e-2,
              -2.0797504e-1, -2.4360572e-1, 3.700043e-4, 2.3136471e-1,
              4.9385265e-2, 1.9760938e-1, -2.5639015e-1, 2.4892525e-1,
              5.613363e-1, -2.689824e-1, 4.640793e-1, -2.1292065e-1,
              -2.7061151e-2, 3.71134e-1, 3.6924374e-1, 7.142207e-4,
              -2.357424e-1, 1.6167343e-2, 4.5810336e-1, 7.363421e-2, 3.29007e-1,
              2.068807e-1, 9.802161e-1, 7.4381924e-1, 8.5285777e-1,
              -4.3442644e-2, 1.8e-1, 2.8735293e-2, 1.0444697e-1, 4.7398666e-1,
              4.5841582e-2, 7.603111e-2, 2.2082618e-1, 1.0545855e-1,
              6.460626e-1, -2.3720826e-1, 9.802161e-1, 2.578233e-1,
              6.0828495e-1, -7.515797e-2, 1.6701859e-1, -1.01856075e-1,
              8.92141e-2, -2.9514495e-1, 5.7681406e-1, 9.70047e-1, 6.4e-1,
              -7.598846e-2, -2.602509e-1, 4.5324004e-1, 3.8336405e-1,
              7.3094466e-3, -1.5286276e-1, -9.6297465e-2, -2.358347e-1, 4e-1,
              6.8203753e-1, -2.2050089e-1, 7.876791e-2, 2.2956085e-1,
              -2.3752315e-1, 1.9760938e-1, -2.5763047e-1, 2.2736937e-1,
              4.3562707e-2, -2.2593375e-1, 5.4399725e-3, 3.274201e-4,
              1.9309393e-1, 4.0574598e-1, 7.913741e-4, 7.459425e-2,
              -2.2873817e-1, 3.7540197e-3, 1.17239654e-1, -1.9619e-1,
              -2.1947429e-2, 6.992131e-1, 5.4576266e-1, -2.3327139e-1,
              2.213539e-1, 2.604961e-1, 8.0936325e-1, 4.2763007e-1,
              2.5688654e-1, 5.4576266e-1, -2.104172e-1, 1.5853846e-1,
              -1.355861e-1, -2.4482091e-1, -2.0352764e-1, 2.7879164e-2,
              -1.19927734e-1, -2.1411307e-1, -1.358374e-1, 2.0570837e-1,
              -3.1011807e-2, -1.7843571e-1, 1.5795647e-1, -2.1943305e-1,
              2.4265377e-1, -3.780589e-2, 8.266794e-2, 3.0210001e-2,
              -2.3992771e-1, -2.2076194e-1, -1.1088335e-1, -1.8297371e-1,
              -2.0942284e-2, 1.3678029e-1, -7.403096e-2, -2.9003444e-1,
              2.0508213e-2, 5.9353933e-2, -1.3187961e-1, -2.4001767e-1,
              8.375926e-2, 2.3420027e-1, 1.3109866e-1
            ],
            "split_indices": [
              0, 0, 7, 7, 0, 0, 0, 5, 0, 7, 0, 17, 0, 4, 1, 7, 15, 15, 4, 15, 6,
              15, 1, 0, 18, 15, 5, 15, 0, 17, 0, 5, 1, 1, 0, 1, 1, 15, 0, 17, 0,
              0, 0, 0, 18, 15, 15, 4, 15, 0, 1, 0, 16, 0, 1, 0, 1, 7, 1, 17, 15,
              4, 0, 1, 1, 15, 0, 1, 4, 4, 0, 0, 0, 0, 0, 0, 15, 7, 15, 18, 0,
              15, 0, 4, 15, 1, 15, 4, 0, 1, 0, 0, 1, 1, 0, 1, 1, 0, 0, 4, 0, 18,
              15, 0, 1, 17, 1, 0, 15, 1, 0, 0, 6, 0, 0, 1, 0, 0, 1, 0, 17, 0, 0,
              17, 1, 7, 0, 1, 1, 1, 15, 1, 16, 15, 1, 0, 15, 0, 0, 1, 0, 0, 0,
              4, 15, 0, 16, 0, 18, 0, 0, 0, 0, 0, 1, 16, 15, 0, 0, 15, 17, 0, 0,
              0, 0, 15, 1, 0, 1, 4, 0, 1, 0, 0, 0, 0, 0, 6, 0, 17, 7, 0, 0, 0,
              0, 0, 0, 18, 15, 0, 0, 0, 1, 1, 1, 15, 0, 0, 0, 0, 0, 0, 0, 0, 0,
              0, 0, 0, 0, 0, 0, 0, 0, 0, 0, 0, 0, 0, 0, 0, 0, 0, 0, 0, 0, 0, 0,
              0, 0
            ],
            "split_type": [
              0, 0, 0, 0, 0, 0, 0, 0, 0, 0, 0, 0, 0, 0, 0, 0, 0, 0, 0, 0, 0, 0,
              0, 0, 0, 0, 0, 0, 0, 0, 0, 0, 0, 0, 0, 0, 0, 0, 0, 0, 0, 0, 0, 0,
              0, 0, 0, 0, 0, 0, 0, 0, 0, 0, 0, 0, 0, 0, 0, 0, 0, 0, 0, 0, 0, 0,
              0, 0, 0, 0, 0, 0, 0, 0, 0, 0, 0, 0, 0, 0, 0, 0, 0, 0, 0, 0, 0, 0,
              0, 0, 0, 0, 0, 0, 0, 0, 0, 0, 0, 0, 0, 0, 0, 0, 0, 0, 0, 0, 0, 0,
              0, 0, 0, 0, 0, 0, 0, 0, 0, 0, 0, 0, 0, 0, 0, 0, 0, 0, 0, 0, 0, 0,
              0, 0, 0, 0, 0, 0, 0, 0, 0, 0, 0, 0, 0, 0, 0, 0, 0, 0, 0, 0, 0, 0,
              0, 0, 0, 0, 0, 0, 0, 0, 0, 0, 0, 0, 0, 0, 0, 0, 0, 0, 0, 0, 0, 0,
              0, 0, 0, 0, 0, 0, 0, 0, 0, 0, 0, 0, 0, 0, 0, 0, 0, 0, 0, 0, 0, 0,
              0, 0, 0, 0, 0, 0, 0, 0, 0, 0, 0, 0, 0, 0, 0, 0, 0, 0, 0, 0, 0, 0,
              0, 0, 0, 0, 0, 0, 0, 0, 0
            ],
            "sum_hessian": [
              4.202118e3, 8.8394586e2, 3.318172e3, 1.2664799e3, 2.0516924e3,
              9.2333923e2, 3.4314056e2, 1.923568e3, 1.2812444e2, 9.1990326e2,
              3.43599, 3.357869e2, 7.35368, 2.3264595e2, 1.690922e3, 6.566135e2,
              2.6328973e2, 1.8004288e2, 1.55744e2, 1.2699591e2, 1.0565005e2,
              2.2679964e2, 1.4641223e3, 2.9666266e2, 3.5995084e2, 1.038877e1,
              2.5290096e2, 1.6449712e2, 1.5545767e1, 1.5152795e2, 4.21605,
              8.4065956e1, 4.292995e1, 1.0240532e2, 3.2447264, 7.670539e1,
              1.5009424e2, 1.4249746e3, 3.91478e1, 3.5447906e2, 5.471791,
              4.928019, 5.4607506, 4.172422e1, 2.1117673e2, 1.03436195e2,
              6.1060917e1, 1.3989297e2, 1.1634981e1, 6.63506e1, 1.7715355e1,
              1.7438354e1, 2.5491594e1, 2.1855032e1, 8.0550285e1, 1.3468546e1,
              6.3236843e1, 7.497965e1, 7.511459e1, 1.3869763e3, 3.7998245e1,
              3.5127576e2, 3.203307, 5.102814e1, 1.6014859e2, 7.4995125e1,
              2.8441065e1, 1.1412117e1, 4.9648804e1, 1.0558213e2, 3.4310852e1,
              5.7002215, 5.934759, 1.422814e1, 3.4872155, 5.181419, 2.0310175e1,
              2.6084791e1, 5.4465496e1, 5.046762e1, 1.2769222e1, 2.0391327e1,
              5.4588326e1, 1.840702e1, 5.6707573e1, 1.5374529e2, 1.2332311e3,
              8.089949, 2.9908297e1, 2.7718945e2, 7.408629e1, 3.74099e1,
              1.361824e1, 1.4506575e2, 1.5082842e1, 4.5116173e1, 2.9878956e1,
              7.935729, 3.4763875, 4.2724285e1, 6.9245157, 9.913955e1,
              6.4425793, 3.4789271, 1.683125e1, 1.143274e1, 1.4652051e1,
              6.2225065, 4.824299e1, 4.701899e1, 3.4486313, 1.1771247e1,
              8.62008, 1.4482055e1, 3.9249654, 8.1904545, 4.851712e1,
              1.599919e1, 1.377461e2, 1.5127601e1, 1.2181034e3, 4.1675496,
              3.9223995, 8.13516e1, 1.9583786e2, 7.429984, 6.1882563,
              2.9999817e1, 1.1506593e2, 1.1642386e1, 3.3473785e1, 1.8669527e1,
              1.1209428e1, 6.663843, 3.6060444e1, 6.439138, 9.270041e1,
              3.2335653, 3.2090137, 8.160157, 8.671091, 5.7360272, 5.696713,
              7.9251437, 6.7269077, 1.1968247e1, 3.6274742e1, 2.1181026e1,
              2.5837963e1, 4.6723676, 3.947712, 4.940489, 3.2499657, 4.369362e1,
              9.4052475e1, 1.0937527e3, 1.2435079e2, 4.41093, 7.6940674e1,
              1.570212e1, 1.8013574e2, 3.7145572, 3.7154272, 3.1977875,
              2.680203e1, 4.3322094e1, 7.174384e1, 3.9560695, 7.686317,
              1.1913162e1, 2.1560623e1, 9.724747, 8.944781, 4.9867716,
              6.2226562, 3.4651113, 3.1987321, 3.0838753e1, 5.2216897,
              1.2426147e1, 8.027426e1, 3.2158983, 4.944259, 3.4675398, 4.457604,
              3.4786825, 3.2482252, 2.9289934e1, 6.9848084, 4.216333,
              2.1621632e1, 1.974595e1, 7.430652e1, 1.928227e2, 9.0092993e2,
              1.1845302e2, 5.8977757, 3.1859128, 1.2516207e1, 1.0783833e2,
              7.229741e1, 6.2055507, 3.7116543e1, 3.665439e1, 3.508945e1,
              3.7440684, 3.9422486, 7.674682, 4.2384796, 3.2264218, 6.4983244,
              1.4415891e1, 1.6422863e1, 6.966678, 5.459469, 7.5803764e1,
              4.4704947, 2.433686e1, 4.9530745, 3.4985614, 3.486247, 2.698854e1,
              4.7317978e1, 1.0713664e2, 8.568605e1, 1.9720583e1, 8.8120935e2,
              7.272385e1, 4.572917e1
            ],
            "tree_param": {
              "num_deleted": "0",
              "num_feature": "20",
              "num_nodes": "229",
              "size_leaf_vector": "1"
            }
          },
          {
            "base_weights": [
              -1.2339029e-2, 2.357618e-1, -4.2130172e-1, -1.2110832,
              4.0289234e-2, -1.4068239, -7.7508914e-1, -5.4874673e-2,
              2.344918e-1, -1.4224734, 1.9730596e-1, -8.283946e-1, 2.1465002e-1,
              -9.474475e-1, 4.688771e-2, -1.4985493, -1.2595989, -1.2525692,
              -6.6427785e-1, -1.0128598, 1.6508049e-1, -1.4329002, 1.0030107e-1,
              -2.3109072e-1, -1.386054, -6.590997e-1, -1.288311, -1.3366839,
              -5.4090697e-1, -1.1924766, -5.4193205e-1, -1.1753311,
              -5.837944e-1, -2.3448528e-1, -7.497505e-1, 1.3809402e-1,
              -2.3122825e-1, -1.112239, -2.2165515e-1, 1.2585022e-1,
              -2.13413e-1, -1.3028376, -7.721376e-2, 2.9319214e-2,
              -2.1374874e-1, -4.4938907e-2, -1.9691028e-1, 6.414317e-2,
              -1.3312457, 1.3799322e-1, -6.1136556e-1, -1.4605591, -9.991827e-1,
              -1.452517e-1, -2.443823e-1, 9.4151095e-2, -2.1105142e-1,
              1.7847365e-1, -1.4016664, -2.8519556e-1, -2.2962593e-1,
              -1.1805176, -2.092375e-1, -7.209011e-2, 7.814319e-2,
              -2.2656147e-1, -9.8311514e-1, -1.2792833, -4.1291207e-1,
              -2.3143286e-1, -9.578081e-2, -1.3494861, -7.9602027e-1,
              -2.0825224e-1, 4.617778e-2, -2.361382e-3, 4.261652e-1,
              -8.117207e-1, -2.3160346e-1, -2.0050758e-1, 4.89373e-1,
              7.1146846e-2, -1.2648443, 3.1705663e-2, -2.0684247e-1,
              -2.3366667e-1, -4.3331e-1, -3.177809e-1, -2.3615696e-1,
              -7.0962405e-1, -2.2369663e-1, 1.3886306e-1, -9.5981735e-1,
              -6.324052e-1, 3.5006335e-1, 6.9258526e-2, -1.1274891,
              -1.242397e-1, 5.7689023e-1, -2.0420904e-1, -1.85334e-2,
              1.4382707e-1, -1.0349959e-2, -1.3971224, -5.865047e-1,
              2.182986e-1, -2.0302556e-1, -4.5858964e-1, 6.3846225e-1,
              -1.8857612e-1, -5.1958943e-3, -1.3817922, -4.1772193e-1,
              -2.4181987e-1, -1.8973437e-1, 5.85454e-1, -1.3567188e-1,
              -8.663614e-2, 7.808231e-1, -2.6982543e-1, 1.0651305, -8.117532e-1,
              1.560617e-1, -2.2452593e-1, 6.055961e-1, -8.5783675e-2,
              -2.181329e-1, -9.5468163e-1, 6.0518455e-2, -2.296917e-1,
              -1.0889537, 1.7542158e-1, -1.1334308e-1, -8.3014774e-1,
              -2.3672639e-1, -2.0797212e-1, -1.381556e-1, 8.827598e-3,
              -7.1453065e-2, -5.1834736e-2, 8.902068e-1, -2.319003e-2,
              -1.4622093, -2.2488011e-1, 8.8485163e-1, 2.4346994e-1,
              -1.0748222e-2, -9.9709725e-1, -5.8689915e-2, 2.3204276e-1,
              -3.2690223e-2, -2.364879e-1, 6.740151e-1, 3.3453632e-2,
              -1.9806539e-1, -1.8596691e-1, -1.454403e-2, -1.9996256e-1,
              -1.0442356e-1, -3.135984e-2, -1.8534264e-1, 9.319976e-2,
              -1.3400604e-1, 5.9564013e-2, 1.6242549e-1, -1.3931134e-1,
              1.0834699e-2, -2.696729e-1, 1.6332872e-2, -7.2934024e-2,
              1.4427131e-1, -7.462612e-2, -2.3234126e-1, -1.2237242e-1,
              1.6782258e-1, -4.6370097e-2, 1.855045e-1, 1.02083296e-1,
              -2.3738912e-1, 2.644963e-1, 9.3748406e-2
            ],
            "categories": [],
            "categories_nodes": [],
            "categories_segments": [],
            "categories_sizes": [],
            "default_left": [
              0, 0, 0, 0, 0, 0, 0, 0, 0, 0, 0, 0, 0, 0, 0, 0, 0, 0, 0, 0, 0, 0,
              0, 0, 0, 0, 0, 0, 0, 0, 0, 0, 0, 0, 0, 0, 0, 0, 0, 0, 0, 0, 0, 0,
              0, 0, 0, 0, 0, 0, 0, 0, 0, 0, 0, 0, 0, 0, 0, 0, 0, 0, 0, 0, 0, 0,
              0, 0, 0, 0, 0, 0, 0, 0, 0, 0, 0, 0, 0, 0, 0, 0, 0, 0, 0, 0, 0, 0,
              0, 0, 0, 0, 0, 0, 0, 0, 0, 0, 0, 0, 0, 0, 0, 0, 0, 0, 0, 0, 0, 0,
              0, 0, 0, 0, 0, 0, 0, 0, 0, 0, 0, 0, 0, 0, 0, 0, 0, 0, 0, 0, 0, 0,
              0, 0, 0, 0, 0, 0, 0, 0, 0, 0, 0, 0, 0, 0, 0, 0, 0, 0, 0, 0, 0, 0,
              0, 0, 0, 0, 0, 0, 0, 0, 0, 0, 0, 0, 0, 0, 0, 0, 0, 0, 0, 0, 0, 0,
              0, 0, 0, 0, 0
            ],
            "id": 2,
            "left_children": [
              1, -1, 3, 5, 7, 9, 11, 13, -1, 15, -1, 17, -1, 19, 21, 23, 25, 27,
              29, 31, -1, 33, 35, -1, 37, 39, 41, 43, 45, 47, 49, 51, 53, -1,
              55, 57, -1, 59, -1, -1, -1, 61, -1, -1, -1, 63, -1, -1, 65, -1,
              67, 69, 71, 73, -1, -1, -1, 75, 77, 79, -1, 81, -1, -1, -1, -1,
              83, 85, 87, -1, -1, 89, 91, -1, 93, 95, 97, 99, -1, -1, 101, -1,
              103, -1, -1, -1, 105, 107, -1, 109, -1, -1, 111, 113, 115, 117,
              119, 121, 123, -1, -1, -1, -1, 125, 127, -1, -1, 129, 131, -1, -1,
              133, 135, 137, -1, 139, -1, 141, 143, -1, 145, 147, 149, -1, 151,
              -1, -1, 153, -1, 155, 157, -1, -1, 159, -1, -1, 161, -1, -1, -1,
              163, 165, 167, -1, 169, -1, -1, 171, 173, -1, 175, 177, 179, -1,
              -1, -1, -1, -1, -1, -1, -1, -1, -1, -1, -1, -1, -1, -1, -1, -1,
              -1, -1, -1, -1, -1, -1, -1, -1, -1, -1, -1
            ],
            "loss_changes": [
              2.646146e3, 0, 1.1859989e3, 1.01320435e2, 2.9700177e2,
              3.7051636e1, 4.5094482e1, 1.757089e2, 0, 8.306519, 0, 2.4635513e1,
              0, 2.759613e1, 1.3743771e2, 2.475586e-1, 3.7751465, 5.318741,
              1.6537582e1, 1.2723373e1, 0, 4.056389, 1.04041214e2, 0, 1.9810791,
              1.7428175e1, 2.200592, 1.1884277e1, 4.6471047, 1.1615829e1,
              2.2625565e1, 5.501175, 2.479497e1, 0, 1.1108198e1, 1.0224905e2, 0,
              1.3499912e1, 0, 0, 0, 1.0576477, 0, 0, 0, 2.3434105, 0, 0,
              1.2968063, 0, 2.7101364e1, 2.291893, 5.2464066, 9.476912, 0, 0, 0,
              7.164372e1, 2.1804733, 1.2666738e1, 0, 1.6122894e1, 0, 0, 0, 0,
              8.778013, 1.030143e1, 1.7356752e1, 0, 0, 1.6949692, 1.7403587e1,
              0, 7.5072193, 7.46567e1, 5.6067337e1, 3.6299505, 0, 0, 2.474813,
              0, 8.710129, 0, 0, 0, 2.4360826e1, 2.063951e1, 0, 2.6899261, 0, 0,
              1.1784203e1, 2.4682007, 7.910867, 9.669352e1, 8.2957214e1,
              2.824801e1, 3.239763e1, 0, 0, 0, 0, 3.0576172, 7.321593, 0, 0,
              1.8838984e1, 1.5441835e1, 0, 0, 1.8702736, 6.5777626, 6.027593e-1,
              0, 6.4550357, 0, 6.2404034e1, 3.8412926e1, 0, 8.647443, 5.8629017,
              2.7405804e1, 0, 3.0321152e1, 0, 0, 6.3410816, 0, 1.3045399e1,
              2.3982582, 0, 0, 2.2078934, 0, 0, 1.228514e1, 0, 0, 0, 1.1307659,
              5.897312e1, 1.6583046e1, 0, 1.5806282e1, 0, 0, 8.557915, 9.281141,
              0, 3.2824104e1, 5.0299583e1, 2.552008e1, 0, 0, 0, 0, 0, 0, 0, 0,
              0, 0, 0, 0, 0, 0, 0, 0, 0, 0, 0, 0, 0, 0, 0, 0, 0, 0, 0, 0
            ],
            "parents": [
              2147483647, 0, 0, 2, 2, 3, 3, 4, 4, 5, 5, 6, 6, 7, 7, 9, 9, 11,
              11, 13, 13, 14, 14, 15, 15, 16, 16, 17, 17, 18, 18, 19, 19, 21,
              21, 22, 22, 24, 24, 25, 25, 26, 26, 27, 27, 28, 28, 29, 29, 30,
              30, 31, 31, 32, 32, 34, 34, 35, 35, 37, 37, 41, 41, 45, 45, 48,
              48, 50, 50, 51, 51, 52, 52, 53, 53, 57, 57, 58, 58, 59, 59, 61,
              61, 66, 66, 67, 67, 68, 68, 71, 71, 72, 72, 74, 74, 75, 75, 76,
              76, 77, 77, 80, 80, 82, 82, 86, 86, 87, 87, 89, 89, 92, 92, 93,
              93, 94, 94, 95, 95, 96, 96, 97, 97, 98, 98, 103, 103, 104, 104,
              107, 107, 108, 108, 111, 111, 112, 112, 113, 113, 115, 115, 117,
              117, 118, 118, 120, 120, 121, 121, 122, 122, 124, 124, 127, 127,
              129, 129, 130, 130, 133, 133, 136, 136, 140, 140, 141, 141, 142,
              142, 144, 144, 147, 147, 148, 148, 150, 150, 151, 151, 152, 152
            ],
            "right_children": [
              2, -1, 4, 6, 8, 10, 12, 14, -1, 16, -1, 18, -1, 20, 22, 24, 26,
              28, 30, 32, -1, 34, 36, -1, 38, 40, 42, 44, 46, 48, 50, 52, 54,
              -1, 56, 58, -1, 60, -1, -1, -1, 62, -1, -1, -1, 64, -1, -1, 66,
              -1, 68, 70, 72, 74, -1, -1, -1, 76, 78, 80, -1, 82, -1, -1, -1,
              -1, 84, 86, 88, -1, -1, 90, 92, -1, 94, 96, 98, 100, -1, -1, 102,
              -1, 104, -1, -1, -1, 106, 108, -1, 110, -1, -1, 112, 114, 116,
              118, 120, 122, 124, -1, -1, -1, -1, 126, 128, -1, -1, 130, 132,
              -1, -1, 134, 136, 138, -1, 140, -1, 142, 144, -1, 146, 148, 150,
              -1, 152, -1, -1, 154, -1, 156, 158, -1, -1, 160, -1, -1, 162, -1,
              -1, -1, 164, 166, 168, -1, 170, -1, -1, 172, 174, -1, 176, 178,
              180, -1, -1, -1, -1, -1, -1, -1, -1, -1, -1, -1, -1, -1, -1, -1,
              -1, -1, -1, -1, -1, -1, -1, -1, -1, -1, -1, -1, -1
            ],
            "split_conditions": [
              1.6666667e-1, 2.357618e-1, 7.8850845e-4, 7.252426e-4, 1,
              8.333333e-1, 8.333333e-1, 1.3188978e-1, 2.344918e-1, 6.50514e-4,
              1.9730596e-1, 3.9112973e-1, 2.1465002e-1, 6.3076925e-1,
              7.102904e-2, 7.17876e-1, 1.448799e-1, 7.2486794e-1, 1.9760938e-1,
              7.248487e-1, 1.6508049e-1, 7.022997e-1, 9.607693e-1,
              -2.3109072e-1, 7.9285985e-1, 5.8884376e-1, 5.538462e-1,
              9.692662e-1, 7.620621e-1, 3.71134e-1, 2.068807e-1, 4.0552285e-1,
              9.0652055e-1, -2.3448528e-1, 7.2486794e-1, 8.8e-1, -2.3122825e-1,
              3.9112973e-1, -2.2165515e-1, 1.2585022e-1, -2.13413e-1,
              4.2763007e-1, -7.721376e-2, 2.9319214e-2, -2.1374874e-1,
              9.711663e-1, -1.9691028e-1, 6.414317e-2, 9.723393e-2,
              1.3799322e-1, 6.0828495e-1, 1.1362306e-2, 2.5688654e-1,
              9.70047e-1, -2.443823e-1, 9.4151095e-2, -2.1105142e-1,
              6.394016e-1, 9e-1, 5.6674733e-4, -2.2962593e-1, 3.6e-1,
              -2.092375e-1, -7.209011e-2, 7.814319e-2, -2.2656147e-1,
              1.16542794e-1, 8.0936325e-1, 9.158685e-1, -2.3143286e-1,
              -9.578081e-2, 4.8e-1, 2.6687035e-1, -2.0825224e-1, 1.8283168e-3,
              7.7727157e-1, 3.3663382e-4, 6.33055e-1, -2.3160346e-1,
              -2.0050758e-1, 6.090715e-4, 7.1146846e-2, 3.664087e-1,
              3.1705663e-2, -2.0684247e-1, -2.3366667e-1, 8.1756186e-1,
              8.641483e-1, -2.3615696e-1, 4.2305684e-1, -2.2369663e-1,
              1.3886306e-1, 6.2360644e-1, 9.237826e-4, 9.790662e-3,
              7.2486794e-1, 4.0208322e-1, 9.70047e-1, 1.2e-1, -2.0420904e-1,
              -1.85334e-2, 1.4382707e-1, -1.0349959e-2, 3.71134e-1,
              7.2486794e-1, 2.182986e-1, -2.0302556e-1, 6.294239e-1,
              6.139852e-1, -1.8857612e-1, -5.1958943e-3, 4e-1, 3.5329878e-1,
              3.7756667e-1, -1.8973437e-1, 4.8029587e-1, -1.3567188e-1,
              9.0203774e-1, 2.9668224e-1, -2.6982543e-1, 5.978852e-1,
              4.6022177e-1, 9.8e-1, -2.2452593e-1, 2.196515e-1, -8.5783675e-2,
              -2.181329e-1, 4.6e-1, 6.0518455e-2, 9.70047e-1, 3.9208314e-1,
              1.7542158e-1, -1.1334308e-1, 5.640947e-1, -2.3672639e-1,
              -2.0797212e-1, 4.7066957e-1, 8.827598e-3, -7.1453065e-2,
              -5.1834736e-2, 4.6815697e-2, 3.5765526e-1, 9.5042527e-1,
              -2.2488011e-1, 3.9112973e-1, 2.4346994e-1, -1.0748222e-2,
              6.8907565e-1, 4.6555194e-1, 2.3204276e-1, 7.022997e-1,
              1.16542794e-1, 6.4705884e-1, 3.3453632e-2, -1.9806539e-1,
              -1.8596691e-1, -1.454403e-2, -1.9996256e-1, -1.0442356e-1,
              -3.135984e-2, -1.8534264e-1, 9.319976e-2, -1.3400604e-1,
              5.9564013e-2, 1.6242549e-1, -1.3931134e-1, 1.0834699e-2,
              -2.696729e-1, 1.6332872e-2, -7.2934024e-2, 1.4427131e-1,
              -7.462612e-2, -2.3234126e-1, -1.2237242e-1, 1.6782258e-1,
              -4.6370097e-2, 1.855045e-1, 1.02083296e-1, -2.3738912e-1,
              2.644963e-1, 9.3748406e-2
            ],
            "split_indices": [
              0, 0, 7, 7, 0, 0, 0, 4, 0, 7, 0, 19, 0, 19, 1, 1, 15, 15, 1, 1, 0,
              15, 1, 0, 1, 1, 19, 16, 1, 17, 1, 19, 1, 0, 15, 15, 0, 19, 0, 0,
              0, 1, 0, 0, 0, 16, 0, 0, 1, 0, 18, 5, 1, 16, 0, 0, 0, 18, 15, 7,
              0, 15, 0, 0, 0, 0, 1, 1, 1, 0, 0, 15, 1, 0, 7, 15, 6, 18, 0, 0, 7,
              0, 1, 0, 0, 0, 1, 1, 0, 15, 0, 0, 15, 6, 7, 15, 17, 16, 15, 0, 0,
              0, 0, 17, 15, 0, 0, 1, 18, 0, 0, 15, 1, 17, 0, 15, 0, 1, 1, 0, 1,
              17, 16, 0, 1, 0, 0, 15, 0, 16, 17, 0, 0, 1, 0, 0, 1, 0, 0, 0, 4,
              19, 1, 0, 19, 0, 0, 18, 19, 0, 15, 1, 18, 0, 0, 0, 0, 0, 0, 0, 0,
              0, 0, 0, 0, 0, 0, 0, 0, 0, 0, 0, 0, 0, 0, 0, 0, 0, 0, 0, 0
            ],
            "split_type": [
              0, 0, 0, 0, 0, 0, 0, 0, 0, 0, 0, 0, 0, 0, 0, 0, 0, 0, 0, 0, 0, 0,
              0, 0, 0, 0, 0, 0, 0, 0, 0, 0, 0, 0, 0, 0, 0, 0, 0, 0, 0, 0, 0, 0,
              0, 0, 0, 0, 0, 0, 0, 0, 0, 0, 0, 0, 0, 0, 0, 0, 0, 0, 0, 0, 0, 0,
              0, 0, 0, 0, 0, 0, 0, 0, 0, 0, 0, 0, 0, 0, 0, 0, 0, 0, 0, 0, 0, 0,
              0, 0, 0, 0, 0, 0, 0, 0, 0, 0, 0, 0, 0, 0, 0, 0, 0, 0, 0, 0, 0, 0,
              0, 0, 0, 0, 0, 0, 0, 0, 0, 0, 0, 0, 0, 0, 0, 0, 0, 0, 0, 0, 0, 0,
              0, 0, 0, 0, 0, 0, 0, 0, 0, 0, 0, 0, 0, 0, 0, 0, 0, 0, 0, 0, 0, 0,
              0, 0, 0, 0, 0, 0, 0, 0, 0, 0, 0, 0, 0, 0, 0, 0, 0, 0, 0, 0, 0, 0,
              0, 0, 0, 0, 0
            ],
            "sum_hessian": [
              4.0931807e3, 8.410448e2, 3.2521357e3, 1.1990092e3, 2.0531267e3,
              8.2596387e2, 3.730453e2, 1.9329845e3, 1.2014228e2, 8.2171075e2,
              4.2530727, 3.6483865e2, 8.206606, 1.9697525e2, 1.7360092e3,
              5.545088e2, 2.6720197e2, 9.9929535e1, 2.6490912e2, 1.9135944e2,
              5.6158247, 5.9579002e1, 1.6764302e3, 4.04916e2, 1.4959282e2,
              1.3286078e1, 2.5391588e2, 8.8581436e1, 1.13481045e1, 4.8175625e1,
              2.167335e2, 1.3753915e2, 5.3820274e1, 4.920273e1, 1.0376274e1,
              1.6395135e3, 3.691661e1, 3.9639286e1, 1.0995353e2, 4.441697,
              8.844381, 2.4857462e2, 5.3412666, 4.568242, 8.401319e1, 7.5399475,
              3.8081572, 3.6396163, 4.4536007e1, 9.287866, 2.0744563e2,
              4.9727055e1, 8.7812096e1, 3.8671432e1, 1.5148844e1, 3.3554182,
              7.0208554, 1.5984781e3, 4.1035404e1, 1.3799945e1, 2.583934e1,
              1.10332954e2, 1.3824167e2, 4.346342, 3.1936054, 2.7411274e1,
              1.7124735e1, 4.6270565e1, 1.6117508e2, 4.461698e1, 5.1100726,
              3.0162285e1, 5.7649815e1, 4.339579, 3.4331852e1, 9.245047e2,
              6.7397345e2, 9.099119, 3.1936285e1, 5.5581503, 8.241795,
              5.1298475, 1.052031e2, 4.3491235, 1.2775612e1, 3.430519e1,
              1.1965373e1, 1.501111e2, 1.1063982e1, 6.438883, 2.3723402e1,
              4.611039, 5.3038776e1, 1.0284742e1, 2.4047112e1, 8.700596e2,
              5.444513e1, 1.4492488e2, 5.290486e2, 4.53199, 4.5671296,
              4.0991783, 4.142616, 8.714916e1, 1.8053938e1, 3.7242093, 8.241163,
              1.3129767e2, 1.8813423e1, 3.090089, 3.3487937, 2.895264e1,
              2.4086134e1, 7.199716, 3.0850258, 2.0690157e1, 3.356955,
              7.14418e2, 1.5564157e2, 4.189021e1, 1.255492e1, 4.1424442e1,
              1.03500435e2, 6.539103, 5.2250946e2, 5.9879966, 8.116117e1,
              1.3181138e1, 4.8728004, 9.732234e1, 3.3975327e1, 1.3757797e1,
              5.0556264, 8.857502, 2.0095139e1, 4.523422, 1.9562712e1,
              3.4735951, 3.726121, 5.0737824, 1.5616374e1, 6.838915e2,
              3.052654e1, 6.2180576, 1.4942352e2, 8.156537, 4.398383,
              3.2982685e1, 8.441757, 1.1539465e1, 9.1960976e1, 3.907894e1,
              4.834305e2, 3.1931102, 9.988028, 1.0386297e1, 8.693604e1,
              1.9632647e1, 1.4342683e1, 4.0763826, 4.7811193, 9.83728, 9.725431,
              5.190398, 1.0425976e1, 6.44033e1, 6.1948816e2, 2.5097609e1,
              5.428932, 7.4186, 1.4200491e2, 1.8224812e1, 1.4757873e1, 5.325747,
              3.1160102, 7.614175e1, 1.5819228e1, 2.3527042e1, 1.5551901e1,
              2.0063585e1, 4.6336694e2
            ],
            "tree_param": {
              "num_deleted": "0",
              "num_feature": "20",
              "num_nodes": "181",
              "size_leaf_vector": "1"
            }
          },
          {
            "base_weights": [
              2.3347815e-3, 2.1752407e-1, -3.5194772e-1, -1.1231283,
              4.342848e-2, -1.3422105, -8.706359e-1, -4.1267063e-2,
              2.1669672e-1, -2.1582398e-1, -1.2604797, -9.0575945e-1,
              1.9753522e-1, -7.156432e-1, 6.7787305e-2, -1.2708629,
              -7.759197e-2, -2.14878e-1, -8.370539e-1, -8.680527e-2, -1.0492537,
              -5.885482e-1, 1.6892159e-1, -2.1661702e-1, -1.2196286,
              -7.8383076e-1, -2.2379853e-1, 2.8257656e-1, -2.1954012e-1,
              -1.2629911, -6.3182163e-1, -6.6864276e-1, 1.9236216e-1,
              2.0818765e-1, -2.1341655e-1, -1.2410619, -3.169596e-2,
              -8.2098323e-1, 5.9720296e-1, 6.9649076e-1, -2.1462722e-1,
              -1.314757, 6.6058002e-3, -2.1264952e-1, -1.2136235e-1,
              -9.713815e-1, -3.8350242e-1, 2.4561456e-1, -1.2854898, -1.045607,
              -1.3136327, -7.3499024e-1, -1.1948208, -4.2598482e-2, 2.278646e-1,
              -1.986481e-1, 1.040568, -6.5786135e-1, -1.3632922, 2.1656518e-1,
              -2.126333e-1, -1.1651263, -5.518357e-1, -3.582463e-3,
              -6.272621e-1, -2.5591838e-1, 2.7283597e-1, -8.2365984e-1,
              -2.1190085e-1, -1.2330158, -5.8748823e-1, -9.7138986e-2,
              -2.0016372e-1, -7.731522e-1, 1.6982093e-1, -1.2648218,
              -3.0578278e-2, -1.6809441e-1, 1.2375134, 3.0504972e-2,
              -1.9788273e-1, -1.0515815, -2.2225124e-1, -2.1312682e-1,
              -9.344823e-1, -1.1216756e-1, -2.1424524e-1, -3.8121367e-1,
              1.1870168, -2.4888307e-1, -1.255224, -2.3071617e-1, 2.9756856e-1,
              -1.9399442e-1, -2.5072627e-2, -6.55606e-2, -1.2992032,
              6.181325e-1, -2.093022e-1, -9.763284e-1, -5.8533907e-1,
              -1.9008644e-1, 8.152612e-1, -2.0352918e-1, -7.7446806e-1,
              2.3595421e-1, 9.030945e-1, -1.2414997, -2.292603e-2,
              -2.0264731e-1, -6.6369796e-1, -4.9622473e-1, 1.22553535e-1,
              -7.036104e-1, 1.16918705e-1, 2.3486818e-1, 6.5503746e-2,
              -2.6219888e-2, -1.8431503e-1, -1.4724293, -5.0559956e-1,
              2.3325899e-1, 9.3934536e-1, -1.0391221e-1, -2.0496699e-1,
              1.79211e-1, -5.2186824e-2, -4.8312515e-1, -1.0545523, -1.2170068,
              -4.6325907e-1, 2.1171334e-1, -1.4557669e-2, -2.123856e-2,
              -1.9799359e-1, -1.702436e-1, 2.2910284e-1, -2.1205005e-1,
              -9.815589e-2, -2.3107071e-1, -2.0830208e-1, -1.1241188,
              2.950275e-1, -2.3755397e-1, -4.2420235e-1, 2.2769205e-1,
              -1.6078874e-1, -2.56571e-1, -3.141897e-2, -1.0410838e-1,
              -2.833239e-2, 3.0542603e-1, -3.6100706e-1, 1.0726029,
              -2.092461e-1, 1.9206839e-2, -2.12216e-1, -1.42724e-1,
              -1.9677965e-1, -2.0499337e-1, -7.188542e-2, -8.34548e-2,
              3.659614e-2, -9.9269226e-2, 3.8745664e-2, 5.308115e-2,
              -1.3345703e-1, -4.091881e-2, -2.1778493e-1, -6.40293e-2,
              1.23256676e-1, -2.2114433e-1, -1.6421895e-2, -1.19052075e-1,
              8.7139346e-2, 2.194679e-2, 9.024602e-2, 1.7812394e-1,
              -9.122264e-2, 2.0239809e-1, 9.8648205e-2
            ],
            "categories": [],
            "categories_nodes": [],
            "categories_segments": [],
            "categories_sizes": [],
            "default_left": [
              0, 0, 0, 0, 0, 0, 0, 0, 0, 0, 0, 0, 0, 0, 0, 0, 0, 0, 0, 0, 0, 0,
              0, 0, 0, 0, 0, 0, 0, 0, 0, 0, 0, 0, 0, 0, 0, 0, 0, 0, 0, 0, 0, 0,
              0, 0, 0, 0, 0, 0, 0, 0, 0, 0, 0, 0, 0, 0, 0, 0, 0, 0, 0, 0, 0, 0,
              0, 0, 0, 0, 0, 0, 0, 0, 0, 0, 0, 0, 0, 0, 0, 0, 0, 0, 0, 0, 0, 0,
              0, 0, 0, 0, 0, 0, 0, 0, 0, 0, 0, 0, 0, 0, 0, 0, 0, 0, 0, 0, 0, 0,
              0, 0, 0, 0, 0, 0, 0, 0, 0, 0, 0, 0, 0, 0, 0, 0, 0, 0, 0, 0, 0, 0,
              0, 0, 0, 0, 0, 0, 0, 0, 0, 0, 0, 0, 0, 0, 0, 0, 0, 0, 0, 0, 0, 0,
              0, 0, 0, 0, 0, 0, 0, 0, 0, 0, 0, 0, 0, 0, 0, 0, 0, 0, 0, 0, 0, 0,
              0, 0, 0, 0, 0
            ],
            "id": 3,
            "left_children": [
              1, -1, 3, 5, 7, 9, 11, 13, -1, -1, 15, 17, -1, 19, 21, 23, -1, -1,
              25, 27, 29, 31, 33, -1, 35, 37, -1, 39, -1, 41, 43, 45, -1, 47,
              -1, 49, -1, 51, 53, 55, -1, 57, -1, -1, 59, 61, 63, 65, 67, 69,
              71, 73, 75, -1, -1, -1, 77, 79, 81, -1, -1, 83, 85, 87, 89, -1,
              91, 93, -1, 95, 97, -1, -1, 99, 101, 103, -1, -1, 105, -1, -1,
              107, -1, -1, 109, 111, -1, 113, 115, 117, 119, -1, 121, -1, -1,
              -1, 123, 125, -1, 127, 129, -1, 131, -1, 133, -1, 135, 137, -1,
              -1, 139, 141, -1, 143, -1, -1, -1, 145, -1, 147, 149, 151, 153,
              -1, -1, -1, -1, 155, 157, 159, 161, -1, -1, -1, -1, 163, -1, -1,
              -1, 165, -1, 167, 169, -1, 171, 173, -1, -1, -1, -1, -1, 175, 177,
              179, -1, -1, -1, -1, -1, -1, -1, -1, -1, -1, -1, -1, -1, -1, -1,
              -1, -1, -1, -1, -1, -1, -1, -1, -1, -1, -1, -1
            ],
            "loss_changes": [
              2.0059115e3, 0, 9.60023e2, 5.786084e1, 2.4651703e2, 2.513916,
              3.943936e1, 1.4450923e2, 0, 0, 1.7496948, 1.6459106e1, 0,
              5.7289246e1, 1.1239564e2, 9.020691e-1, 0, 0, 1.3964752e1,
              4.9047974e1, 1.5138504e1, 3.467688e1, 9.174837e1, 0, 4.96344,
              2.131073e1, 0, 5.5064014e1, 0, 7.982086, 2.4777037e1, 1.839927e1,
              0, 8.037813e1, 0, 1.9796448, 0, 1.1838623e1, 9.488591, 4.453926e1,
              0, 2.6963196, 0, 0, 8.054894e1, 7.8775406, 1.0521601e1,
              7.4568504e1, 8.453903e-1, 5.19191, 1.088623, 1.1325684e1,
              4.766327, 0, 0, 0, 2.4202328e1, 5.7521358, 2.1590881, 0, 0,
              2.7915497, 1.3275883e1, 2.0873602e1, 1.6134163e1, 0, 6.2109756e1,
              2.7952595, 0, 1.9656372, 2.2109741e1, 0, 0, 1.1305908e1,
              1.3930818e1, 1.8776093, 0, 0, 4.088112, 0, 0, 5.1751556, 0, 0,
              3.5685806, 9.081118, 0, 1.3710497e1, 2.467782, 9.632147,
              3.4527855, 0, 5.598471e1, 0, 0, 0, 7.5535583e-1, 5.6507196, 0,
              5.20105, 1.2101555e1, 0, 5.6593394, 0, 4.154622, 0, 1.828787e1,
              1.6389732, 0, 0, 7.8173265, 9.20134, 0, 6.205817, 0, 0, 0,
              1.0097169e1, 0, 5.388233, 3.0263495e-1, 5.324994e1, 3.9910927e1,
              0, 0, 0, 0, 1.2711744e1, 2.158844, 2.1534348, 9.153872, 0, 0, 0,
              0, 2.4371629, 0, 0, 0, 7.020924, 0, 2.4112663, 3.6348248, 0,
              7.3098726, 1.1482833e1, 0, 0, 0, 0, 0, 5.1862526e1, 5.1811615e1,
              1.2501022e1, 0, 0, 0, 0, 0, 0, 0, 0, 0, 0, 0, 0, 0, 0, 0, 0, 0, 0,
              0, 0, 0, 0, 0, 0, 0, 0, 0
            ],
            "parents": [
              2147483647, 0, 0, 2, 2, 3, 3, 4, 4, 5, 5, 6, 6, 7, 7, 10, 10, 11,
              11, 13, 13, 14, 14, 15, 15, 18, 18, 19, 19, 20, 20, 21, 21, 22,
              22, 24, 24, 25, 25, 27, 27, 29, 29, 30, 30, 31, 31, 33, 33, 35,
              35, 37, 37, 38, 38, 39, 39, 41, 41, 44, 44, 45, 45, 46, 46, 47,
              47, 48, 48, 49, 49, 50, 50, 51, 51, 52, 52, 56, 56, 57, 57, 58,
              58, 61, 61, 62, 62, 63, 63, 64, 64, 66, 66, 67, 67, 69, 69, 70,
              70, 73, 73, 74, 74, 75, 75, 78, 78, 81, 81, 84, 84, 85, 85, 87,
              87, 88, 88, 89, 89, 90, 90, 92, 92, 96, 96, 97, 97, 99, 99, 100,
              100, 102, 102, 104, 104, 106, 106, 107, 107, 110, 110, 111, 111,
              113, 113, 117, 117, 119, 119, 120, 120, 121, 121, 122, 122, 127,
              127, 128, 128, 129, 129, 130, 130, 135, 135, 139, 139, 141, 141,
              142, 142, 144, 144, 145, 145, 151, 151, 152, 152, 153, 153
            ],
            "right_children": [
              2, -1, 4, 6, 8, 10, 12, 14, -1, -1, 16, 18, -1, 20, 22, 24, -1,
              -1, 26, 28, 30, 32, 34, -1, 36, 38, -1, 40, -1, 42, 44, 46, -1,
              48, -1, 50, -1, 52, 54, 56, -1, 58, -1, -1, 60, 62, 64, 66, 68,
              70, 72, 74, 76, -1, -1, -1, 78, 80, 82, -1, -1, 84, 86, 88, 90,
              -1, 92, 94, -1, 96, 98, -1, -1, 100, 102, 104, -1, -1, 106, -1,
              -1, 108, -1, -1, 110, 112, -1, 114, 116, 118, 120, -1, 122, -1,
              -1, -1, 124, 126, -1, 128, 130, -1, 132, -1, 134, -1, 136, 138,
              -1, -1, 140, 142, -1, 144, -1, -1, -1, 146, -1, 148, 150, 152,
              154, -1, -1, -1, -1, 156, 158, 160, 162, -1, -1, -1, -1, 164, -1,
              -1, -1, 166, -1, 168, 170, -1, 172, 174, -1, -1, -1, -1, -1, 176,
              178, 180, -1, -1, -1, -1, -1, -1, -1, -1, -1, -1, -1, -1, -1, -1,
              -1, -1, -1, -1, -1, -1, -1, -1, -1, -1, -1, -1, -1
            ],
            "split_conditions": [
              1.6666667e-1, 2.1752407e-1, 7.7814783e-4, 6.685899e-4, 1,
              5.6674733e-4, 8.333333e-1, 2.0167036e-1, 2.1669672e-1,
              -2.1582398e-1, 7.699298e-1, 1.7741494e-2, 1.9753522e-1, 5e-1,
              1.5441108e-1, 2.736106e-4, -7.759197e-2, -2.14878e-1, 9.103517e-1,
              3.7756667e-1, 6.560311e-1, 5.333533e-1, 9.607693e-1,
              -2.1661702e-1, 2.438298e-1, 8.92422e-1, -2.2379853e-1,
              1.16542794e-1, -2.1954012e-1, 1.9760938e-1, 1.0939054e-1,
              9.0770945e-3, 1.9236216e-1, 8.8e-1, -2.1341655e-1, 3.9112973e-1,
              -3.169596e-2, 6.806723e-1, 6.2360644e-1, 7.102904e-2,
              -2.1462722e-1, 5.0477505e-1, 6.6058002e-3, -2.1264952e-1,
              1.16542794e-1, 7.287739e-1, 4.8701248e-1, 3.71134e-1, 9e-1,
              7.17876e-1, 1.8e-1, 6.658851e-1, 5.538462e-1, -4.2598482e-2,
              2.278646e-1, -1.986481e-1, 5.846407e-1, 1.21666774e-1,
              8.7425037e-4, 2.1656518e-1, -2.126333e-1, 5.633782e-1,
              9.0652055e-1, 4.240375e-1, 6.2e-1, -2.5591838e-1, 1.2e-1,
              7.3444206e-1, -2.1190085e-1, 7.876791e-2, 7.9285985e-1,
              -9.7138986e-2, -2.0016372e-1, 7.347215e-4, 2.9147693e-4,
              7.580769e-1, -3.0578278e-2, -1.6809441e-1, 7.876791e-2,
              3.0504972e-2, -1.9788273e-1, 8.496477e-4, -2.2225124e-1,
              -2.1312682e-1, 4.1716734e-1, 8.92422e-1, -2.1424524e-1,
              7.2486794e-1, 4.4398022e-1, 4.2783505e-1, 8.2e-1, -2.3071617e-1,
              4.640793e-1, -1.9399442e-1, -2.5072627e-2, -6.55606e-2,
              9.637623e-1, 6.222978e-4, -2.093022e-1, 3.6e-1, 3.7101832e-1,
              -1.9008644e-1, 9.749496e-1, -2.0352918e-1, 5.8e-1, 2.3595421e-1,
              4.6233472e-1, 3.700043e-4, -2.292603e-2, -2.0264731e-1,
              3.2087737e-3, 5.0715167e-2, 1.22553535e-1, 2.585479e-1,
              1.16918705e-1, 2.3486818e-1, 6.5503746e-2, 8.9816993e-1,
              -1.8431503e-1, 7.0278795e-4, 1.9583756e-3, 4.2783505e-1,
              6.460626e-1, -1.0391221e-1, -2.0496699e-1, 1.79211e-1,
              -5.2186824e-2, 5.8884376e-1, 4.6555194e-1, 6.47458e-1,
              2.5079132e-3, 2.1171334e-1, -1.4557669e-2, -2.123856e-2,
              -1.9799359e-1, 9.201517e-4, 2.2910284e-1, -2.1205005e-1,
              -9.815589e-2, 6.8444854e-1, -2.0830208e-1, 7.581794e-1,
              3.29007e-1, -2.3755397e-1, 6.0828495e-1, 7.120527e-1,
              -1.6078874e-1, -2.56571e-1, -3.141897e-2, -1.0410838e-1,
              -2.833239e-2, 6.394016e-1, 9.6e-1, 5.4576266e-1, -2.092461e-1,
              1.9206839e-2, -2.12216e-1, -1.42724e-1, -1.9677965e-1,
              -2.0499337e-1, -7.188542e-2, -8.34548e-2, 3.659614e-2,
              -9.9269226e-2, 3.8745664e-2, 5.308115e-2, -1.3345703e-1,
              -4.091881e-2, -2.1778493e-1, -6.40293e-2, 1.23256676e-1,
              -2.2114433e-1, -1.6421895e-2, -1.19052075e-1, 8.7139346e-2,
              2.194679e-2, 9.024602e-2, 1.7812394e-1, -9.122264e-2,
              2.0239809e-1, 9.8648205e-2
            ],
            "split_indices": [
              0, 0, 7, 7, 0, 7, 0, 1, 0, 0, 18, 5, 0, 15, 4, 6, 0, 0, 1, 17, 18,
              19, 1, 0, 4, 1, 0, 1, 0, 1, 1, 5, 0, 15, 0, 19, 0, 18, 15, 1, 0,
              15, 0, 0, 1, 1, 1, 17, 15, 1, 15, 18, 19, 0, 0, 0, 18, 1, 7, 0, 0,
              15, 1, 17, 15, 0, 15, 1, 0, 1, 1, 0, 0, 7, 6, 18, 0, 0, 1, 0, 0,
              7, 0, 0, 19, 1, 0, 15, 17, 17, 15, 0, 17, 0, 0, 0, 16, 7, 0, 15,
              19, 0, 16, 0, 15, 0, 15, 6, 0, 0, 6, 4, 0, 1, 0, 0, 0, 1, 0, 6, 7,
              17, 15, 0, 0, 0, 0, 1, 19, 18, 10, 0, 0, 0, 0, 7, 0, 0, 0, 15, 0,
              1, 15, 0, 18, 1, 0, 0, 0, 0, 0, 18, 16, 15, 0, 0, 0, 0, 0, 0, 0,
              0, 0, 0, 0, 0, 0, 0, 0, 0, 0, 0, 0, 0, 0, 0, 0, 0, 0, 0, 0
            ],
            "split_type": [
              0, 0, 0, 0, 0, 0, 0, 0, 0, 0, 0, 0, 0, 0, 0, 0, 0, 0, 0, 0, 0, 0,
              0, 0, 0, 0, 0, 0, 0, 0, 0, 0, 0, 0, 0, 0, 0, 0, 0, 0, 0, 0, 0, 0,
              0, 0, 0, 0, 0, 0, 0, 0, 0, 0, 0, 0, 0, 0, 0, 0, 0, 0, 0, 0, 0, 0,
              0, 0, 0, 0, 0, 0, 0, 0, 0, 0, 0, 0, 0, 0, 0, 0, 0, 0, 0, 0, 0, 0,
              0, 0, 0, 0, 0, 0, 0, 0, 0, 0, 0, 0, 0, 0, 0, 0, 0, 0, 0, 0, 0, 0,
              0, 0, 0, 0, 0, 0, 0, 0, 0, 0, 0, 0, 0, 0, 0, 0, 0, 0, 0, 0, 0, 0,
              0, 0, 0, 0, 0, 0, 0, 0, 0, 0, 0, 0, 0, 0, 0, 0, 0, 0, 0, 0, 0, 0,
              0, 0, 0, 0, 0, 0, 0, 0, 0, 0, 0, 0, 0, 0, 0, 0, 0, 0, 0, 0, 0, 0,
              0, 0, 0, 0, 0
            ],
            "sum_hessian": [
              3.9188535e3, 7.714312e2, 3.1474224e3, 1.0661189e3, 2.0813035e3,
              5.685148e2, 4.9760406e2, 1.963285e3, 1.1801841e2, 2.5837296e2,
              3.101418e2, 4.9030457e2, 7.299482, 2.7251712e2, 1.690768e3,
              3.0517896e2, 4.9628625, 5.4630096e1, 4.3567447e2, 9.4898575e1,
              1.7761853e2, 2.2510098e2, 1.465667e3, 6.4544556e1, 2.406344e2,
              4.0478726e2, 3.0887215e1, 7.540588e1, 1.9492693e1, 1.1613067e2,
              6.1487865e1, 2.1645992e2, 8.64108, 1.4311481e3, 3.451888e1,
              2.3540317e2, 5.2312407, 3.945779e2, 1.0209364e1, 6.1185608e1,
              1.4220276e1, 1.11700294e2, 4.4303694, 2.358295e1, 3.7904915e1,
              1.0382273e2, 1.12637184e2, 1.3969797e3, 3.4168396e1, 6.790982e1,
              1.6749335e2, 3.2319922e2, 7.1378685e1, 5.5640016, 4.645362,
              8.5015, 5.268411e1, 8.686598, 1.030137e2, 1.7115221e1,
              2.0789694e1, 6.980835e1, 3.4014374e1, 4.4419834e1, 6.821735e1,
              1.8411247e1, 1.3785685e3, 8.827588, 2.5340809e1, 4.6993908e1,
              2.0915909e1, 5.202154, 1.6229118e2, 3.1025903e2, 1.2940188e1,
              6.641409e1, 4.964591, 4.0145335, 4.8669575e1, 4.06302, 4.623577,
              3.0414366e1, 7.2599335e1, 3.0900194e1, 3.8908157e1, 2.3369778e1,
              1.0644598e1, 3.4239616e1, 1.0180219e1, 4.3439297e1, 2.4778055e1,
              1.779042e1, 1.3607781e3, 4.5995297, 4.228058, 4.1846895,
              4.280922e1, 8.461945, 1.2453965e1, 1.4701732e2, 1.632417e2,
              3.7195084, 9.22068, 5.4768753e1, 1.1645342e1, 2.2590382e1,
              2.6079191e1, 2.4796112e1, 5.6182537, 1.3833737e1, 2.507442e1,
              1.6852839e1, 6.516938, 2.7093473e1, 7.1461406, 6.0735855,
              4.106633, 3.621084e1, 7.2284565, 1.8463882e1, 6.3141727,
              1.2380792e3, 1.2269888e2, 5.1803927, 3.7628826e1, 5.160717,
              3.301227, 2.1107904e1, 1.2590942e2, 2.4986633e1, 1.3825507e2,
              5.2601438, 3.9605367, 5.952236, 5.6931057, 9.817114, 1.6262077e1,
              1.8195244e1, 6.6008687, 1.6499466e1, 8.574955, 9.161832, 7.691007,
              5.4268274, 2.1666647e1, 2.9749565e1, 6.4612727, 1.5287436e1,
              3.176447, 3.230817, 3.083356, 1.1044429e3, 1.3363634e2,
              1.16573555e2, 6.1253266, 1.3249031e1, 7.858874, 9.228649e1,
              3.3622925e1, 2.015822e1, 4.828413, 1.2257035e2, 1.5684723e1,
              4.324171, 5.492943, 8.975212, 7.524253, 3.0309522, 6.1308794,
              3.3188722, 4.3721347, 4.165049, 1.7501598e1, 7.3111095,
              2.2438456e1, 7.175319e2, 3.8691092e2, 1.7798708e1, 1.1583762e2,
              6.9060616e1, 4.7512936e1
            ],
            "tree_param": {
              "num_deleted": "0",
              "num_feature": "20",
              "num_nodes": "181",
              "size_leaf_vector": "1"
            }
          },
          {
            "base_weights": [
              -1.3301131e-2, 2.044374e-1, -3.3265594e-1, -1.0005177,
              3.1745147e-2, -1.2623863, -7.4311405e-1, -4.364696e-2,
              2.0325813e-1, -2.0368053e-1, -1.1976734, -7.826211e-1,
              1.9111899e-1, -6.6056293e-1, 4.9258385e-2, -1.1521387,
              -2.0208049e-1, -2.011851e-1, -7.191616e-1, -1.0069759,
              -4.5112178e-1, -1.1636847, 8.791118e-2, -1.1687273, -3.9756007e-2,
              -6.662114e-1, -2.0982727e-1, -1.934248e-1, -7.179487e-1,
              1.4190523e-1, -5.014579e-1, -2.031656e-1, -4.385541e-1,
              1.17380925e-1, -1.9970787e-1, -1.2337673, -9.754973e-1,
              -7.195725e-1, 1.1008878e-1, -1.7157154e-1, -3.9187267e-1,
              -1.0830448, -3.9588037e-1, 1.234443e-1, -1.8228754e-1,
              1.4863402e-1, -1.213287, -5.6509715e-1, -1.2544966, 1.0422382e-1,
              -1.0964925, -1.1090193, -6.272635e-1, 6.2820613e-1, -8.5793567e-1,
              -1.7766942e-1, -4.0431086e-2, -4.51571e-2, -2.0023619e-1,
              -3.1291512e-1, -1.8500477e-1, -1.9738509e-1, 2.3851669e-1,
              -8.060138e-1, -1.990352e-1, -1.53926965e-2, -1.3115053e-1,
              -1.902653e-1, -9.059849e-2, -2.0256159e-1, -9.045071e-1,
              1.7644009e-1, -1.8535855e-1, -4.015656e-1, -8.1657517e-1,
              1.2650346, -6.876835e-2, -1.9799632e-1, 2.2154659e-2,
              2.1762487e-1, -1.6509984e-1, -5.02834e-1, 5.8352333e-2,
              5.358954e-2, -4.285658e-1, -2.8917724e-1, 3.1180385e-1,
              -1.8564188e-1, -2.6488421e-2, -6.231459e-1, -1.9573525e-1,
              1.2304446e-1, -8.283807e-2, -6.2974274e-1, 4.0750244e-1,
              -2.2064883e-1, -6.903937e-1, 2.1719715e-1, 9.928903e-2,
              -1.24245636e-1, 7.584959e-2, 5.8896005e-1, -5.685182e-2,
              -1.0459704, -1.5512931e-1, -6.321106e-1, 4.3393248e-1,
              2.7501693e-1, -6.9339275e-1, -9.6166164e-1, -1.5937544e-1,
              2.0115356e-1, -5.217331e-1, -3.6517307e-1, 3.7526035e-1,
              -2.5699657e-1, -1.7585337e-1, 3.9963898e-1, -7.122833e-1,
              -1.8629737e-1, 7.7366996e-1, -1.3906941e-1, -8.562805e-1,
              -4.2253654e-3, 1.3730049e-1, -1.8651739e-2, -1.2182063,
              2.0698698e-1, -1.0443358, 2.4596784e-2, -1.0874764, 2.060701e-1,
              2.2030178e-1, 3.4903675e-1, -2.0116633e-1, 1.3741916e-1,
              -9.3396246e-1, -1.1924106, 1.6413301e-1, -3.613769e-1,
              6.7204237e-1, -1.484933, -2.0777524e-1, 3.6362395e-1,
              -2.0797025e-1, 6.1887914e-1, 2.2311464e-1, 5.0813295e-2,
              -1.0733864e-1, 1.476042e-1, -9.3380725e-3, -2.0304607e-1,
              -7.549618e-2, 6.831828e-2, 2.6962402e-1, 7.531132e-2,
              -1.1346782e-1, -1.9479688e-1, -9.823125e-2, -2.0874919e-1,
              -1.1521427e-1, -9.2952184e-2, 6.285512e-2, -1.9521575e-1,
              -7.116764e-2, -2.2115554e-1, -5.7265505e-2, -5.4082476e-2,
              9.4653174e-2, 1.2120737e-2, 1.1333999e-1, -3.2349903e-2,
              -1.64387e-1, -2.3463482e-1, -1.3442776e-1, -1.22936465e-1,
              -9.637008e-3, 1.8132156e-1, 2.0159638e-2, -2.469608e-1,
              -1.0987795e-1, -1.4289807e-1, 5.4680377e-2, -7.973258e-2,
              1.6115369e-1, 9.7260386e-2, -2.5244814e-1, -2.6634008e-1,
              5.23553e-2
            ],
            "categories": [],
            "categories_nodes": [],
            "categories_segments": [],
            "categories_sizes": [],
            "default_left": [
              0, 0, 0, 0, 0, 0, 0, 0, 0, 0, 0, 0, 0, 0, 0, 0, 0, 0, 0, 0, 0, 0,
              0, 0, 0, 0, 0, 0, 0, 0, 0, 0, 0, 0, 0, 0, 0, 0, 0, 0, 0, 0, 0, 0,
              0, 0, 0, 0, 0, 0, 0, 0, 0, 0, 0, 0, 0, 0, 0, 0, 0, 0, 0, 0, 0, 0,
              0, 0, 0, 0, 0, 0, 0, 0, 0, 0, 0, 0, 0, 0, 0, 0, 0, 0, 0, 0, 0, 0,
              0, 0, 0, 0, 0, 0, 0, 0, 0, 0, 0, 0, 0, 0, 0, 0, 0, 0, 0, 0, 0, 0,
              0, 0, 0, 0, 0, 0, 0, 0, 0, 0, 0, 0, 0, 0, 0, 0, 0, 0, 0, 0, 0, 0,
              0, 0, 0, 0, 0, 0, 0, 0, 0, 0, 0, 0, 0, 0, 0, 0, 0, 0, 0, 0, 0, 0,
              0, 0, 0, 0, 0, 0, 0, 0, 0, 0, 0, 0, 0, 0, 0, 0, 0, 0, 0, 0, 0, 0,
              0, 0, 0, 0, 0, 0, 0, 0, 0, 0, 0, 0, 0
            ],
            "id": 4,
            "left_children": [
              1, -1, 3, 5, 7, 9, 11, 13, -1, -1, 15, 17, -1, 19, 21, 23, -1, -1,
              25, 27, 29, 31, 33, 35, -1, 37, -1, -1, 39, -1, 41, -1, 43, 45,
              -1, 47, 49, 51, 53, -1, 55, 57, 59, -1, -1, 61, 63, 65, 67, -1,
              69, 71, 73, 75, 77, -1, 79, -1, -1, 81, -1, 83, 85, 87, -1, -1,
              -1, -1, -1, -1, 89, 91, -1, 93, 95, 97, 99, -1, -1, 101, -1, 103,
              105, 107, 109, 111, 113, -1, -1, 115, -1, -1, -1, 117, 119, -1,
              121, -1, -1, -1, -1, 123, -1, 125, 127, 129, 131, 133, 135, 137,
              139, -1, 141, 143, 145, 147, -1, 149, 151, -1, 153, 155, 157, -1,
              -1, -1, 159, 161, 163, -1, 165, 167, -1, 169, -1, -1, 171, 173,
              -1, 175, 177, 179, 181, 183, -1, 185, 187, -1, -1, -1, -1, -1, -1,
              -1, -1, -1, -1, -1, -1, -1, -1, -1, -1, -1, -1, -1, -1, -1, -1,
              -1, -1, -1, -1, -1, -1, -1, -1, -1, -1, -1, -1, -1, -1, -1, -1,
              -1, -1, -1, -1
            ],
            "loss_changes": [
              1.6357954e3, 0, 7.36766e2, 7.1097046e1, 1.9503592e2, 1.5215454,
              4.406772e1, 1.06330055e2, 0, 0, 5.7107544e-1, 1.7763824e1, 0,
              1.716259e1, 7.571686e1, 3.372467, 0, 0, 1.6224152e1, 6.3931046,
              1.1223755e1, 6.179184, 6.5409706e1, 1.87677, 0, 1.8567017e1, 0, 0,
              6.0084534, 0, 8.686661, 0, 1.2408484e1, 6.3932487e1, 0, 1.7805176,
              1.4185005e1, 1.4321594e1, 1.5370865e1, 0, 7.7092414, 3.922966,
              8.420742, 0, 0, 4.6657627e1, 5.1643753e-1, 9.363098e-1,
              4.4024658e-1, 0, 1.7810516, 1.2716293e1, 1.4199051e1, 8.892868,
              5.1417317, 0, 5.7999997, 0, 0, 8.282952, 0, 1.7984573e1,
              4.611528e1, 2.499804, 0, 0, 0, 0, 0, 0, 3.4736748, 4.079601, 0,
              2.9251501e1, 1.4086525e1, 1.756134e-1, 4.9400287, 0, 0, 4.0308113,
              0, 1.4482111e1, 1.0779552e1, 2.4888763e1, 2.2987137e1,
              5.5796223e1, 4.50484e1, 0, 0, 4.5724125, 0, 0, 0, 1.0727104e1,
              2.2151546e1, 0, 1.4143097e1, 0, 0, 0, 0, 2.2240713, 0, 4.6273613,
              1.5817602e1, 5.496412, 6.000928, 1.430087e1, 1.4163588e1,
              2.6838623e1, 1.843934e1, 0, 3.8444267e1, 6.733197e1, 3.5309647e1,
              4.552823, 0, 2.6839776, 1.4631245e1, 0, 8.747959, 1.505053e1,
              9.824982, 0, 0, 0, 8.7478256e-1, 6.3962603, 1.4414301, 0,
              2.002779, 5.76682, 0, 1.2060385e1, 0, 0, 3.2460766, 3.9785233, 0,
              1.1854622e1, 6.0187473, 2.516121, 4.1834038e1, 3.4291042e1, 0,
              2.4561127e1, 1.4775955e2, 0, 0, 0, 0, 0, 0, 0, 0, 0, 0, 0, 0, 0,
              0, 0, 0, 0, 0, 0, 0, 0, 0, 0, 0, 0, 0, 0, 0, 0, 0, 0, 0, 0, 0, 0,
              0, 0, 0, 0, 0, 0, 0
            ],
            "parents": [
              2147483647, 0, 0, 2, 2, 3, 3, 4, 4, 5, 5, 6, 6, 7, 7, 10, 10, 11,
              11, 13, 13, 14, 14, 15, 15, 18, 18, 19, 19, 20, 20, 21, 21, 22,
              22, 23, 23, 25, 25, 28, 28, 30, 30, 32, 32, 33, 33, 35, 35, 36,
              36, 37, 37, 38, 38, 40, 40, 41, 41, 42, 42, 45, 45, 46, 46, 47,
              47, 48, 48, 50, 50, 51, 51, 52, 52, 53, 53, 54, 54, 56, 56, 59,
              59, 61, 61, 62, 62, 63, 63, 70, 70, 71, 71, 73, 73, 74, 74, 75,
              75, 76, 76, 79, 79, 81, 81, 82, 82, 83, 83, 84, 84, 85, 85, 86,
              86, 89, 89, 93, 93, 94, 94, 96, 96, 101, 101, 103, 103, 104, 104,
              105, 105, 106, 106, 107, 107, 108, 108, 109, 109, 110, 110, 112,
              112, 113, 113, 114, 114, 115, 115, 117, 117, 118, 118, 120, 120,
              121, 121, 122, 122, 126, 126, 127, 127, 128, 128, 130, 130, 131,
              131, 133, 133, 136, 136, 137, 137, 139, 139, 140, 140, 141, 141,
              142, 142, 143, 143, 145, 145, 146, 146
            ],
            "right_children": [
              2, -1, 4, 6, 8, 10, 12, 14, -1, -1, 16, 18, -1, 20, 22, 24, -1,
              -1, 26, 28, 30, 32, 34, 36, -1, 38, -1, -1, 40, -1, 42, -1, 44,
              46, -1, 48, 50, 52, 54, -1, 56, 58, 60, -1, -1, 62, 64, 66, 68,
              -1, 70, 72, 74, 76, 78, -1, 80, -1, -1, 82, -1, 84, 86, 88, -1,
              -1, -1, -1, -1, -1, 90, 92, -1, 94, 96, 98, 100, -1, -1, 102, -1,
              104, 106, 108, 110, 112, 114, -1, -1, 116, -1, -1, -1, 118, 120,
              -1, 122, -1, -1, -1, -1, 124, -1, 126, 128, 130, 132, 134, 136,
              138, 140, -1, 142, 144, 146, 148, -1, 150, 152, -1, 154, 156, 158,
              -1, -1, -1, 160, 162, 164, -1, 166, 168, -1, 170, -1, -1, 172,
              174, -1, 176, 178, 180, 182, 184, -1, 186, 188, -1, -1, -1, -1,
              -1, -1, -1, -1, -1, -1, -1, -1, -1, -1, -1, -1, -1, -1, -1, -1,
              -1, -1, -1, -1, -1, -1, -1, -1, -1, -1, -1, -1, -1, -1, -1, -1,
              -1, -1, -1, -1, -1, -1
            ],
            "split_conditions": [
              1.6666667e-1, 2.044374e-1, 7.8850845e-4, 6.685899e-4, 1,
              5.4977357e-4, 8.333333e-1, 1.4427981e-2, 2.0325813e-1,
              -2.0368053e-1, 2.5185627e-1, 1.7741494e-2, 1.9111899e-1,
              6.2732794e-3, 7.102904e-2, 2.438298e-1, -2.0208049e-1,
              -2.011851e-1, 9.103517e-1, 5.660199e-3, 5.294118e-1, 7.022997e-1,
              9.607693e-1, 7.17876e-1, -3.9756007e-2, 8.641483e-1,
              -2.0982727e-1, -1.934248e-1, 6.2360644e-1, 1.4190523e-1,
              2.2182843e-1, -2.031656e-1, 7.2486794e-1, 8.8e-1, -1.9970787e-1,
              3.71134e-1, 7.248487e-1, 1.9760938e-1, 3.7756667e-1,
              -1.7157154e-1, 4.2763007e-1, 4.9417457e-1, 9.0652055e-1,
              1.234443e-1, -1.8228754e-1, 3.3191306e-4, 9e-1, 5.7983196e-1,
              7.699298e-1, 1.0422382e-1, 5.235045e-1, 3.71134e-1, 4.7066957e-1,
              2.2164991e-1, 4.1312057e-1, -1.7766942e-1, 3.878677e-1,
              -4.51571e-2, -2.0023619e-1, 7.17876e-1, -1.8500477e-1,
              3.814433e-1, 3.743762e-1, 2.0502645e-1, -1.990352e-1,
              -1.53926965e-2, -1.3115053e-1, -1.902653e-1, -9.059849e-2,
              -2.0256159e-1, 8.9816993e-1, 4.4445208e-1, -1.8535855e-1,
              7.2486794e-1, 5.35028e-1, 5.4576266e-1, 7.2810834e-4,
              -1.9799632e-1, 2.2154659e-2, 7.6e-1, -1.6509984e-1, 5.4576266e-1,
              5.9559016e-4, 9.145993e-4, 8.266443e-4, 7.876791e-2, 2.1777344e-1,
              -1.8564188e-1, -2.6488421e-2, 6.3133583e-4, -1.9573525e-1,
              1.2304446e-1, -8.283807e-2, 2.068807e-1, 2.9668224e-1,
              -2.2064883e-1, 6.0861236e-1, 2.1719715e-1, 9.928903e-2,
              -1.24245636e-1, 7.584959e-2, 5.7681406e-1, -5.685182e-2,
              1.0283455e-3, 4.7398666e-1, 5.4576266e-1, 1.3188978e-1,
              7.7727157e-1, 3.4764555e-1, 8.200316e-1, 4.6022177e-1,
              2.0115356e-1, 5.0477505e-1, 1.21666774e-1, 4.7398666e-1,
              2.1811287e-1, -1.7585337e-1, 2.22082e-1, 6.0828495e-1,
              -1.8629737e-1, 4.5810336e-1, 3.2e-1, 5.0477505e-1, -4.2253654e-3,
              1.3730049e-1, -1.8651739e-2, 5.4968965e-1, 5.573406e-4,
              5.8884376e-1, 2.4596784e-2, 6.394016e-1, 4.708953e-3,
              2.2030178e-1, 6.2360644e-1, -2.0116633e-1, 1.3741916e-1,
              2.068807e-1, 3.0028727e-4, 1.6413301e-1, 3.111685e-4,
              5.4576266e-1, 8.0936325e-1, 5.613363e-1, 1.06122136e-1,
              -2.0797025e-1, 7.89916e-1, 5.328259e-1, 5.0813295e-2,
              -1.0733864e-1, 1.476042e-1, -9.3380725e-3, -2.0304607e-1,
              -7.549618e-2, 6.831828e-2, 2.6962402e-1, 7.531132e-2,
              -1.1346782e-1, -1.9479688e-1, -9.823125e-2, -2.0874919e-1,
              -1.1521427e-1, -9.2952184e-2, 6.285512e-2, -1.9521575e-1,
              -7.116764e-2, -2.2115554e-1, -5.7265505e-2, -5.4082476e-2,
              9.4653174e-2, 1.2120737e-2, 1.1333999e-1, -3.2349903e-2,
              -1.64387e-1, -2.3463482e-1, -1.3442776e-1, -1.22936465e-1,
              -9.637008e-3, 1.8132156e-1, 2.0159638e-2, -2.469608e-1,
              -1.0987795e-1, -1.4289807e-1, 5.4680377e-2, -7.973258e-2,
              1.6115369e-1, 9.7260386e-2, -2.5244814e-1, -2.6634008e-1,
              5.23553e-2
            ],
            "split_indices": [
              0, 0, 7, 7, 0, 7, 0, 5, 0, 0, 4, 5, 0, 5, 1, 4, 0, 0, 1, 7, 18,
              15, 1, 1, 0, 1, 0, 0, 15, 0, 1, 0, 15, 15, 0, 17, 1, 1, 17, 0, 1,
              15, 1, 0, 0, 6, 15, 18, 18, 0, 15, 17, 1, 4, 17, 0, 17, 0, 0, 1,
              0, 17, 17, 4, 0, 0, 0, 0, 0, 0, 1, 15, 0, 15, 1, 15, 7, 0, 0, 15,
              0, 15, 6, 7, 7, 1, 1, 0, 0, 7, 0, 0, 0, 1, 1, 0, 1, 0, 0, 0, 0, 1,
              0, 7, 1, 15, 4, 15, 15, 15, 17, 0, 15, 1, 1, 4, 0, 4, 18, 0, 1,
              15, 15, 0, 0, 0, 1, 6, 1, 0, 18, 10, 0, 15, 0, 0, 1, 6, 0, 6, 15,
              1, 1, 1, 0, 18, 1, 0, 0, 0, 0, 0, 0, 0, 0, 0, 0, 0, 0, 0, 0, 0, 0,
              0, 0, 0, 0, 0, 0, 0, 0, 0, 0, 0, 0, 0, 0, 0, 0, 0, 0, 0, 0, 0, 0,
              0, 0, 0, 0
            ],
            "split_type": [
              0, 0, 0, 0, 0, 0, 0, 0, 0, 0, 0, 0, 0, 0, 0, 0, 0, 0, 0, 0, 0, 0,
              0, 0, 0, 0, 0, 0, 0, 0, 0, 0, 0, 0, 0, 0, 0, 0, 0, 0, 0, 0, 0, 0,
              0, 0, 0, 0, 0, 0, 0, 0, 0, 0, 0, 0, 0, 0, 0, 0, 0, 0, 0, 0, 0, 0,
              0, 0, 0, 0, 0, 0, 0, 0, 0, 0, 0, 0, 0, 0, 0, 0, 0, 0, 0, 0, 0, 0,
              0, 0, 0, 0, 0, 0, 0, 0, 0, 0, 0, 0, 0, 0, 0, 0, 0, 0, 0, 0, 0, 0,
              0, 0, 0, 0, 0, 0, 0, 0, 0, 0, 0, 0, 0, 0, 0, 0, 0, 0, 0, 0, 0, 0,
              0, 0, 0, 0, 0, 0, 0, 0, 0, 0, 0, 0, 0, 0, 0, 0, 0, 0, 0, 0, 0, 0,
              0, 0, 0, 0, 0, 0, 0, 0, 0, 0, 0, 0, 0, 0, 0, 0, 0, 0, 0, 0, 0, 0,
              0, 0, 0, 0, 0, 0, 0, 0, 0, 0, 0, 0, 0
            ],
            "sum_hessian": [
              3.7295256e3, 7.0330145e2, 3.0262244e3, 1.067677e3, 1.9585474e3,
              5.273129e2, 5.40364e2, 1.8536263e3, 1.04921005e2, 2.0958897e2,
              3.1772397e2, 5.3056726e2, 9.796732, 2.4181316e2, 1.6118132e3,
              2.4897481e2, 6.874917e1, 5.237037e1, 4.781969e2, 8.967837e1,
              1.5213478e2, 4.887844e1, 1.5629347e3, 2.4409734e2, 4.8774714,
              4.453045e2, 3.289238e1, 4.3862614e1, 4.5815754e1, 4.681319,
              1.4745346e2, 3.8162163e1, 1.0716279e1, 1.5319648e3, 3.0969944e1,
              1.7859758e2, 6.549977e1, 4.167324e2, 2.857212e1, 1.8859064e1,
              2.695669e1, 2.1232632e1, 1.2622083e2, 4.0543427, 6.6619363,
              1.4976775e3, 3.4287308e1, 6.219959, 1.7237761e2, 4.109026,
              6.1390743e1, 7.773945e1, 3.3899295e2, 1.883961e1, 9.732512,
              7.575957, 1.9380733e1, 5.646561, 1.5586071e1, 1.1605471e2,
              1.0166124e1, 3.0857352e2, 1.189104e3, 9.070217, 2.5217089e1,
              3.0123186, 3.2076402, 1.6868617e2, 3.6914418, 2.4031506e1,
              3.7359238e1, 6.7758455, 7.09636e1, 1.5605951e2, 1.8293343e2,
              9.418683, 9.420926, 6.4708138, 3.261699, 1.6217062e1, 3.163672,
              7.654457e1, 3.951014e1, 1.4832115e2, 1.6025237e2, 1.446471e2,
              1.0444569e3, 4.8274355, 4.2427816, 2.336765e1, 1.3991587e1,
              3.5332022, 3.2426436, 1.2190184e2, 3.4157673e1, 2.7990124e1,
              1.549433e2, 6.1955266, 3.223156, 3.8679206, 5.553005, 9.996412,
              6.2206497, 2.9092327e1, 4.7452244e1, 1.3679272e1, 2.5830866e1,
              1.148948e2, 3.342635e1, 5.2906204e1, 1.0734616e2, 1.7498077e1,
              1.2714902e2, 8.910439e1, 9.553525e2, 1.4869519e1, 8.49813,
              8.763876, 1.1313796e2, 5.7815275, 2.8376146e1, 3.6262695e1,
              1.1868061e2, 3.75609, 6.2403226, 4.8501825, 2.4242144e1,
              3.426539e1, 1.3186854e1, 5.212423, 8.466849, 2.2137705e1,
              3.6931615, 1.10601746e2, 4.2930555, 3.9877563, 2.9438593e1,
              4.7937504e1, 4.968702, 8.681815e1, 2.052801e1, 3.0339603e1,
              9.680942e1, 5.2296135e1, 3.680826e1, 3.660916e2, 5.8926086e2,
              6.5711503, 8.298369, 3.3796098, 5.384266, 2.670797e1, 8.642999e1,
              2.2705837e1, 5.670309, 1.7869883e1, 1.8392815e1, 3.5840805e1,
              8.28398e1, 1.6117613e1, 8.124532, 6.584272, 2.7681116e1, 8.249364,
              4.9374914, 4.7897897, 3.6770594, 9.5398035, 1.25979e1, 6.720894e1,
              4.3392807e1, 5.7608743, 2.367772e1, 1.9586443e1, 2.8351063e1,
              3.3570385e1, 5.324777e1, 9.682859, 1.0845151e1, 2.4133696e1,
              6.205909, 4.1814648e1, 5.4994766e1, 2.3224998e1, 2.9071135e1,
              3.6241928e2, 3.6723292, 3.3985397e1, 5.5527545e2
            ],
            "tree_param": {
              "num_deleted": "0",
              "num_feature": "20",
              "num_nodes": "189",
              "size_leaf_vector": "1"
            }
          },
          {
            "base_weights": [
              -1.2573474e-2, 1.9406977e-1, -2.962836e-1, -8.707375e-1,
              3.0536443e-2, -1.1683862, -6.3151115e-1, -3.493244e-2,
              1.9297874e-1, -1.9150865e-1, -1.0773848, -6.6313374e-1,
              1.8013646e-1, -6.78577e-1, 5.0368376e-2, -4.743913e-1, -1.0954903,
              -1.0258803, -5.6444895e-1, -7.245574e-1, 1.3629983e-1, -1.2003719,
              8.810701e-2, 4.9667012e-2, -1.6637485e-1, -1.106133, -3.666496e-2,
              -4.2404705e-1, -1.0651909, -8.3273315e-1, -3.8686717e-1,
              -1.1792423, -5.911047e-1, -8.4777904e-1, -1.928279e-1,
              1.12992644e-1, -1.8890813e-1, -1.8795012e-1, -1.041023,
              -1.7502901e-1, 4.9094614e-2, -9.2310566e-1, -1.9557802e-1,
              -1.1426547, -7.2990084e-1, -3.283306e-1, -2.0395605e-1,
              -8.745332e-2, -1.2262784, -1.1265628, -4.6152684e-1, -4.44431e-2,
              -1.7222236e-1, 6.264714e-2, 6.912751e-1, -5.4179204e-1,
              -1.0842376, -1.0791458, -5.27171e-1, -7.463181e-2, -1.2250738,
              -2.9589105e-1, -9.107128e-1, -2.4528138e-1, -1.0174671,
              -1.9523928e-1, -8.079938e-1, -1.9797686e-1, 3.898451e-2,
              -7.7142745e-1, -2.1369536e-1, -4.073097e-1, 1.6171671e-1,
              7.912307e-1, -6.086381e-1, -1.5605433e-1, -3.312469e-1, -1.191515,
              -9.0600234e-1, -2.0737693e-1, -8.5876715e-1, 1.0787238e-1,
              -1.5777414e-1, -9.045029e-2, -1.904618e-1, -8.1128985e-2,
              -1.654547e-1, -1.0498234, -7.240089e-1, -1.0618879, -1.7404577e-1,
              -6.0016733e-1, -1.2519505, -5.5334564e-2, -1.6130625e-1,
              -1.7346036e-1, -4.5323431e-1, -1.0099225, -5.929543e-2,
              1.4053294e-2, -9.6865267e-1, -4.7151975e-2, 4.780214e-1,
              6.3170004e-1, 2.1363127e-1, -2.5566795e-1, 1.1771516e-1,
              -1.09523244e-1, -4.1024644e-2, -1.8952103e-1, -9.1888076e-1,
              -1.9815773e-1, -6.537487e-1, 8.260333e-2, -1.1067246, 9.843015e-2,
              -8.869283e-2, 1.61008e-1, -1.6104768e-1, -6.0294044e-1,
              -1.1574807, 6.0224343e-2, -9.8217595e-1, -1.9045156e-1,
              -6.667064e-1, -2.5278531e-2, -6.53964e-1, -8.930013e-1,
              -1.9066182e-3, -8.563553e-1, -2.2038232e-1, -8.9885116e-2,
              -1.6050623e-1, -2.6017494e-2, -2.0561984e-1, -1.8984196e-1,
              9.3206257e-1, -1.825558e-1, 1.3519487, -1.1593165, 4.273299e-2,
              8.186765e-2, -1.2952675, 5.6087315e-1, -1.2707337, -2.3861292e-1,
              7.364893e-1, 6.942491e-2, -7.436341e-2, -4.2189788e-2,
              -1.625652e-1, -3.384182e-1, -1.0675441, -1.8750893e-1,
              -4.792463e-2, -4.9013972e-1, 1.10017, 1.8995387e-2, -1.8141665e-1,
              -8.5417974e-1, -1.9370341e-1, -1.4661872e-1, 1.1291103e-1,
              -6.953885e-1, -1.8969469e-1, -1.5858786e-1, -3.2125466e-2,
              -1.1771966e-1, 6.101056e-1, -8.033945e-1, 4.1340742e-2,
              -1.7100708e-1, -5.5697124e-2, -1.7084193e-1, -5.019725e-2,
              -1.8047649e-1, 3.114837e-1, -9.1556065e-2, -1.7156687e-1,
              5.3559862e-2, 1.9682261e-1, 1.1258756e-1, -1.3976504,
              2.5676566e-1, 1.058229e-1, -1.4086267, -2.662742e-1, 2.3972765e-1,
              -2.2222067e-1, 2.2865275e-1, 1.1518004e-2, -1.5753844, 1.69126e-1,
              1.2149876e-1, 9.607317e-1, -5.0755614e-1, -2.6059234e-1,
              5.001626e-1, 1.0803636, -1.7209141e-1, -4.0342407e-3,
              -1.0411143e-1, -1.8481582e-1, -1.21349186e-1, 5.9097214e-4,
              1.9269153e-1, 6.541327e-2, -1.7800893e-1, -6.699241e-2,
              -1.5788189e-1, 8.224779e-2, -6.6989325e-2, 1.7403314e-2,
              4.004825e-2, 1.9759528e-1, -1.3185784e-1, 2.0720132e-2,
              -7.8479305e-4, 1.3070339e-1, -5.2829597e-2, 4.6349492e-2,
              8.217118e-2, -7.4962236e-2, -2.8256854e-2, -2.959782e-1,
              -1.0359841e-1, -2.3783599e-1, -2.2041397e-1, 9.425613e-2,
              -7.5186715e-2, 3.0656012e-2, -2.4851564e-1, -1.3896185e-1,
              3.8284093e-2, -2.4696843e-1, 1.7829028e-1, 1.8948892e-2,
              -1.6936605e-1, 3.7474237e-2, 1.3798584e-1, -2.439411e-1,
              8.0849096e-2, 2.044737e-1
            ],
            "categories": [],
            "categories_nodes": [],
            "categories_segments": [],
            "categories_sizes": [],
            "default_left": [
              0, 0, 0, 0, 0, 0, 0, 0, 0, 0, 0, 0, 0, 0, 0, 0, 0, 0, 0, 0, 0, 0,
              0, 0, 0, 0, 0, 0, 0, 0, 0, 0, 0, 0, 0, 0, 0, 0, 0, 0, 0, 0, 0, 0,
              0, 0, 0, 0, 0, 0, 0, 0, 0, 0, 0, 0, 0, 0, 0, 0, 0, 0, 0, 0, 0, 0,
              0, 0, 0, 0, 0, 0, 0, 0, 0, 0, 0, 0, 0, 0, 0, 0, 0, 0, 0, 0, 0, 0,
              0, 0, 0, 0, 0, 0, 0, 0, 0, 0, 0, 0, 0, 0, 0, 0, 0, 0, 0, 0, 0, 0,
              0, 0, 0, 0, 0, 0, 0, 0, 0, 0, 0, 0, 0, 0, 0, 0, 0, 0, 0, 0, 0, 0,
              0, 0, 0, 0, 0, 0, 0, 0, 0, 0, 0, 0, 0, 0, 0, 0, 0, 0, 0, 0, 0, 0,
              0, 0, 0, 0, 0, 0, 0, 0, 0, 0, 0, 0, 0, 0, 0, 0, 0, 0, 0, 0, 0, 0,
              0, 0, 0, 0, 0, 0, 0, 0, 0, 0, 0, 0, 0, 0, 0, 0, 0, 0, 0, 0, 0, 0,
              0, 0, 0, 0, 0, 0, 0, 0, 0, 0, 0, 0, 0, 0, 0, 0, 0, 0, 0, 0, 0, 0,
              0, 0, 0, 0, 0, 0, 0, 0, 0, 0, 0, 0, 0, 0, 0, 0, 0, 0, 0, 0, 0, 0,
              0
            ],
            "id": 5,
            "left_children": [
              1, -1, 3, 5, 7, 9, 11, 13, -1, -1, 15, 17, -1, 19, 21, 23, 25, 27,
              29, 31, -1, 33, 35, -1, -1, 37, -1, 39, 41, 43, 45, 47, 49, 51,
              -1, 53, -1, -1, 55, -1, -1, 57, -1, 59, 61, 63, -1, -1, 65, 67,
              69, -1, -1, 71, 73, 75, 77, 79, 81, -1, 83, 85, 87, 89, 91, -1,
              93, -1, -1, 95, 97, 99, 101, 103, 105, -1, 107, 109, 111, -1, 113,
              115, -1, -1, -1, 117, -1, 119, 121, 123, 125, 127, 129, -1, -1,
              -1, 131, 133, 135, 137, 139, 141, 143, 145, -1, -1, -1, -1, 147,
              -1, 149, -1, 151, -1, 153, -1, -1, 155, -1, 157, 159, 161, 163,
              -1, 165, 167, 169, 171, -1, 173, -1, 175, -1, -1, -1, 177, 179,
              181, 183, 185, 187, 189, 191, 193, 195, -1, 197, -1, -1, -1, -1,
              199, 201, -1, -1, 203, 205, -1, -1, 207, -1, -1, -1, 209, -1, -1,
              -1, 211, 213, 215, -1, -1, -1, -1, -1, -1, 217, 219, -1, -1, -1,
              221, 223, -1, -1, 225, 227, -1, -1, -1, 229, 231, -1, 233, 235,
              237, -1, 239, 241, -1, -1, -1, -1, -1, -1, -1, -1, -1, -1, -1, -1,
              -1, -1, -1, -1, -1, -1, -1, -1, -1, -1, -1, -1, -1, -1, -1, -1,
              -1, -1, -1, -1, -1, -1, -1, -1, -1, -1, -1, -1, -1, -1, -1, -1
            ],
            "loss_changes": [
              1.3018665e3, 0, 5.4296643e2, 7.393567e1, 1.5128748e2, 3.0824585,
              3.4553146e1, 9.631266e1, 0, 0, 2.2775269, 1.9980057e1, 0,
              1.5615654e1, 7.323571e1, 5.0596213, 1.9781494, 2.4252472,
              2.1293762e1, 1.1441299e1, 0, 2.237854e-1, 5.04825e1, 0, 0,
              9.864197e-1, 0, 5.441806, 2.593155, 4.897423, 1.515086e1,
              5.3484344e-1, 1.0349434e1, 1.5518465, 0, 4.2999886e1, 0, 0,
              3.1731262, 0, 0, 4.015396, 0, 1.6848526, 1.0544495e1, 1.4661612e1,
              0, 0, 1.6190338e-1, 8.188919, 9.652657, 0, 0, 6.3438156e1,
              1.5853432e1, 1.314734, 1.9687653, 2.2689018, 7.713547, 0,
              2.0541e-1, 7.1665382, 1.7539291, 1.3417684e1, 1.9593964, 0,
              6.012435e-1, 0, 0, 6.334118, 8.841945, 5.6133156e1, 7.4338486e1,
              1.0174721e1, 1.5016347e1, 0, 1.4241624, 6.4582825e-1, 5.7914886,
              0, 1.2050571e1, 4.6764812, 0, 0, 0, 8.376558, 0, 1.8637466,
              9.078922, 6.559448e-1, 1.54242325e1, 2.0337343, 1.6498375e-1, 0,
              0, 0, 7.138284, 3.2617111, 8.163496, 3.615612e1, 1.966999e1,
              1.0935055e2, 6.5545044e1, 2.2040092e1, 0, 0, 0, 0, 2.1314068, 0,
              2.084196, 0, 5.0814667, 0, 2.7156029, 0, 0, 1.7890985e1, 0,
              5.6189356, 5.552864e-1, 9.292469, 1.8108482, 0, 1.2581627,
              9.829746, 7.3184547, 5.890541e-1, 0, 8.3359146e-1, 0, 9.937241, 0,
              0, 0, 5.0699244, 1.1283879, 4.315863e1, 2.8557053, 1.8693123e1,
              4.269315e1, 6.2299595e1, 4.489376e1, 7.5063446e1, 6.3655815, 0,
              6.482746, 0, 0, 0, 0, 6.2812786, 2.1350479e-1, 0, 0, 2.7337422,
              8.793955e-1, 0, 0, 1.5667791, 0, 0, 0, 8.846939, 0, 0, 0,
              1.1210819e1, 4.794826, 3.1801128, 0, 0, 0, 0, 0, 0, 2.9284923,
              5.4305515, 0, 0, 0, 2.6088879e1, 1.5851456e1, 0, 0, 7.2098236,
